{"learner":{"attributes":{"scikit_learn":"{\"_estimator_type\": \"regressor\"}"},"feature_names":["is_retail","avg_preparation_time","hour_of_day"],"feature_types":["int","float","int"],"gradient_booster":{"model":{"gbtree_model_param":{"num_parallel_tree":"1","num_trees":"100"},"iteration_indptr":[0,1,2,3,4,5,6,7,8,9,10,11,12,13,14,15,16,17,18,19,20,21,22,23,24,25,26,27,28,29,30,31,32,33,34,35,36,37,38,39,40,41,42,43,44,45,46,47,48,49,50,51,52,53,54,55,56,57,58,59,60,61,62,63,64,65,66,67,68,69,70,71,72,73,74,75,76,77,78,79,80,81,82,83,84,85,86,87,88,89,90,91,92,93,94,95,96,97,98,99,100],"tree_info":[0,0,0,0,0,0,0,0,0,0,0,0,0,0,0,0,0,0,0,0,0,0,0,0,0,0,0,0,0,0,0,0,0,0,0,0,0,0,0,0,0,0,0,0,0,0,0,0,0,0,0,0,0,0,0,0,0,0,0,0,0,0,0,0,0,0,0,0,0,0,0,0,0,0,0,0,0,0,0,0,0,0,0,0,0,0,0,0,0,0,0,0,0,0,0,0,0,0,0,0],"trees":[{"base_weights":[9.155732E-7,1.9733958E-1,-1.4420812E-1,-4.3367323E-1,3.5886043E-1,-2.7921805E-1,1.5635704E-1,-8.3269596E-1,-9.796845E-2,2.576041E-1,7.538737E-1,-9.9631116E-2,-5.402814E-1,-1.5826173E-1,6.6263634E-1,7.5122E-2,-1.2325623E0,3.195313E-1,-8.3602995E-1,3.195446E-1,-5.3633875E-1,9.830556E-1,-6.0797784E-2,5.712455E-1,-2.0021516E-1,-2.224799E-1,-8.31374E-1,-1.2681909E-2,-2.6979957E0,1.5081372E0,4.240937E-1,-1.4618787E-1,8.7824464E-1,-1.8862329E0,-1.0218631E0,8.8035244E-1,5.859116E-2,-3.4687114E-1,-1.544053E0,1.242372E-1,5.076154E-1,-1.1869893E0,7.893414E-1,7.056285E-1,2.2758348E0,1.6542872E0,-5.738033E-1,1.9805384E-1,1.7276812E0,-5.6328785E-1,-3.8852666E-2,-2.6983871E0,-1.229518E-1,1.5260044E0,-9.602147E-1,6.9626504E-1,-1.617615E-1,-1.3005729E0,-1.2784345E0,8.1692624E-1,2.691572E0,-2.8622813E0,5.15047E-1,1.5492184E-1,-1.984783E-1,-4.0670055E-1,5.1305175E-1,-7.531483E-1,-3.2714877E-1,-3.5583365E-1,-1.4170378E-1,5.917895E-1,1.8150544E-1,-1.0475934E-1,1.7486414E-1,-2.2007155E-1,8.500357E-1,-5.331318E-1,-1.0489231E-1,1.5274662E-1,-4.176668E-2,2.0857121E-1,8.892E-3,-1.1956533E-1,-7.6255405E-1,3.2188025E-1,-7.74916E-1,-2.8374359E-2,2.89105E-1,3.1523946E-1,1.0075896E0,2.622226E-1,6.260141E-1,-8.804684E-1,4.7911303E-3,-3.7414232E-1,1.58554E-1,7.102243E-1,-6.668313E-1,-2.727944E-1,3.4321374E-1,1.7340332E-1,-5.9476744E-2,-9.57887E-1,2.6291057E-1,2.465048E-2,-2.5160295E-1,-2.2058645E-1,6.4578044E-1,-1.3597439E-1,-3.4430337E-1,2.7738664E-2,3.339013E-1,-4.551502E-1,-2.4693996E-2,-5.942886E-1,-1.5947588E-1,2.9984072E-2,3.6656082E-1,1.1229076E-1,8.8735104E-1,-1.0346534E0,-7.740441E-2,2.3043036E-2,2.7430245E-1],"categories":[],"categories_nodes":[],"categories_segments":[],"categories_sizes":[],"default_left":[0,0,0,0,0,0,0,0,0,0,0,0,0,0,0,0,0,0,0,0,0,0,0,0,0,0,0,0,0,0,0,0,0,0,0,0,0,0,0,0,0,0,0,0,0,0,0,0,0,0,0,0,0,0,0,0,0,0,0,0,0,0,0,0,0,0,0,0,0,0,0,0,0,0,0,0,0,0,0,0,0,0,0,0,0,0,0,0,0,0,0,0,0,0,0,0,0,0,0,0,0,0,0,0,0,0,0,0,0,0,0,0,0,0,0,0,0,0,0,0,0,0,0,0,0],"id":0,"left_children":[1,3,5,7,9,11,13,15,17,19,21,23,25,27,29,31,33,35,37,39,41,43,45,47,49,51,53,55,57,59,61,63,65,67,69,71,73,75,77,79,81,83,85,87,89,91,93,95,97,99,101,103,105,107,109,111,113,115,-1,117,119,121,123,-1,-1,-1,-1,-1,-1,-1,-1,-1,-1,-1,-1,-1,-1,-1,-1,-1,-1,-1,-1,-1,-1,-1,-1,-1,-1,-1,-1,-1,-1,-1,-1,-1,-1,-1,-1,-1,-1,-1,-1,-1,-1,-1,-1,-1,-1,-1,-1,-1,-1,-1,-1,-1,-1,-1,-1,-1,-1,-1,-1,-1,-1],"loss_changes":[9.47652E1,1.4345757E2,7.811819E1,3.8363182E1,4.4603104E1,6.220755E1,9.5198E1,4.7646355E1,4.8645187E1,4.408664E1,4.262918E1,5.3288204E1,4.9862762E1,1.3639763E2,4.554696E1,7.415686E0,1.0605759E1,1.4728834E1,1.9205547E1,3.0387451E1,5.7002987E1,6.223416E1,4.5821487E1,4.4109753E1,4.0168327E1,6.373804E1,8.711607E1,3.7103962E1,3.8153778E1,3.8701332E1,5.5277412E1,1.1611323E1,1.9044514E1,7.694031E0,5.8480377E0,8.430262E0,1.5169497E1,4.5122707E1,5.78096E0,4.1446304E1,3.7823784E1,4.5988678E1,2.381195E1,3.0652832E1,3.7591187E1,2.2246666E0,5.5747257E1,3.8387817E1,6.8443085E1,1.2569553E2,4.6919678E1,2.0477844E1,3.6918095E1,2.283657E1,2.4949905E1,1.5246416E1,3.1103634E1,5.2254696E0,0E0,9.458958E0,9.999008E0,6.747982E0,3.0727222E1,0E0,0E0,0E0,0E0,0E0,0E0,0E0,0E0,0E0,0E0,0E0,0E0,0E0,0E0,0E0,0E0,0E0,0E0,0E0,0E0,0E0,0E0,0E0,0E0,0E0,0E0,0E0,0E0,0E0,0E0,0E0,0E0,0E0,0E0,0E0,0E0,0E0,0E0,0E0,0E0,0E0,0E0,0E0,0E0,0E0,0E0,0E0,0E0,0E0,0E0,0E0,0E0,0E0,0E0,0E0,0E0,0E0,0E0,0E0,0E0,0E0,0E0],"parents":[2147483647,0,0,1,1,2,2,3,3,4,4,5,5,6,6,7,7,8,8,9,9,10,10,11,11,12,12,13,13,14,14,15,15,16,16,17,17,18,18,19,19,20,20,21,21,22,22,23,23,24,24,25,25,26,26,27,27,28,28,29,29,30,30,31,31,32,32,33,33,34,34,35,35,36,36,37,37,38,38,39,39,40,40,41,41,42,42,43,43,44,44,45,45,46,46,47,47,48,48,49,49,50,50,51,51,52,52,53,53,54,54,55,55,56,56,57,57,59,59,60,60,61,61,62,62],"right_children":[2,4,6,8,10,12,14,16,18,20,22,24,26,28,30,32,34,36,38,40,42,44,46,48,50,52,54,56,58,60,62,64,66,68,70,72,74,76,78,80,82,84,86,88,90,92,94,96,98,100,102,104,106,108,110,112,114,116,-1,118,120,122,124,-1,-1,-1,-1,-1,-1,-1,-1,-1,-1,-1,-1,-1,-1,-1,-1,-1,-1,-1,-1,-1,-1,-1,-1,-1,-1,-1,-1,-1,-1,-1,-1,-1,-1,-1,-1,-1,-1,-1,-1,-1,-1,-1,-1,-1,-1,-1,-1,-1,-1,-1,-1,-1,-1,-1,-1,-1,-1,-1,-1,-1,-1],"split_conditions":[9.955968E0,5E0,1.3003409E1,8.960773E0,2E1,1.2234733E1,1.4E1,7.672063E0,3E0,1.9E1,9.70072E0,3E0,1E0,1.4859623E1,1.3140137E1,4E0,1E0,1E0,9.685976E0,1.2E1,9.676036E0,9.584476E0,2.1E1,2E0,9E0,1E0,1E0,1.311946E1,8E0,1.311946E1,1.32046175E1,1E0,1E0,8.166515E0,8.647051E0,9.111454E0,2E0,9.676036E0,9.946839E0,8E0,1.7E1,9.111454E0,9.927907E0,2.1E1,1E0,9.738613E0,9.738613E0,1.0214864E1,1.1753853E1,1.2042181E1,1.2E1,1.2550326E1,1.2768533E1,1.230691E1,7E0,1E0,1.3140137E1,1.6123222E1,-1.2784345E0,1.8E1,1.5E1,1E0,1.3869858E1,1.5492184E-1,-1.984783E-1,-4.0670055E-1,5.1305175E-1,-7.531483E-1,-3.2714877E-1,-3.5583365E-1,-1.4170378E-1,5.917895E-1,1.8150544E-1,-1.0475934E-1,1.7486414E-1,-2.2007155E-1,8.500357E-1,-5.331318E-1,-1.0489231E-1,1.5274662E-1,-4.176668E-2,2.0857121E-1,8.892E-3,-1.1956533E-1,-7.6255405E-1,3.2188025E-1,-7.74916E-1,-2.8374359E-2,2.89105E-1,3.1523946E-1,1.0075896E0,2.622226E-1,6.260141E-1,-8.804684E-1,4.7911303E-3,-3.7414232E-1,1.58554E-1,7.102243E-1,-6.668313E-1,-2.727944E-1,3.4321374E-1,1.7340332E-1,-5.9476744E-2,-9.57887E-1,2.6291057E-1,2.465048E-2,-2.5160295E-1,-2.2058645E-1,6.4578044E-1,-1.3597439E-1,-3.4430337E-1,2.7738664E-2,3.339013E-1,-4.551502E-1,-2.4693996E-2,-5.942886E-1,-1.5947588E-1,2.9984072E-2,3.6656082E-1,1.1229076E-1,8.8735104E-1,-1.0346534E0,-7.740441E-2,2.3043036E-2,2.7430245E-1],"split_indices":[1,2,1,1,2,1,2,1,2,2,1,2,0,1,1,2,2,2,1,2,1,1,2,2,2,2,2,1,2,1,1,0,0,1,1,1,2,1,1,2,2,1,1,2,0,1,1,1,1,1,2,1,1,1,2,0,1,1,0,2,2,0,1,0,0,0,0,0,0,0,0,0,0,0,0,0,0,0,0,0,0,0,0,0,0,0,0,0,0,0,0,0,0,0,0,0,0,0,0,0,0,0,0,0,0,0,0,0,0,0,0,0,0,0,0,0,0,0,0,0,0,0,0,0,0],"split_type":[0,0,0,0,0,0,0,0,0,0,0,0,0,0,0,0,0,0,0,0,0,0,0,0,0,0,0,0,0,0,0,0,0,0,0,0,0,0,0,0,0,0,0,0,0,0,0,0,0,0,0,0,0,0,0,0,0,0,0,0,0,0,0,0,0,0,0,0,0,0,0,0,0,0,0,0,0,0,0,0,0,0,0,0,0,0,0,0,0,0,0,0,0,0,0,0,0,0,0,0,0,0,0,0,0,0,0,0,0,0,0,0,0,0,0,0,0,0,0,0,0,0,0,0,0],"sum_hessian":[3.328E3,1.405E3,1.923E3,2.86E2,1.119E3,1.327E3,5.96E2,1.3E2,1.56E2,8.92E2,2.27E2,7.87E2,5.4E2,3.68E2,2.28E2,4E1,9E1,1E2,5.6E1,8.28E2,6.4E1,1.77E2,5E1,1.02E2,6.85E2,2.59E2,2.81E2,3.49E2,1.9E1,4.9E1,1.79E2,3.2E1,8E0,2E1,7E1,3.1E1,6.9E1,3.4E1,2.2E1,4.07E2,4.21E2,4.3E1,2.1E1,1.47E2,3E1,1.1E1,3.9E1,7.8E1,2.4E1,2.1E2,4.75E2,9E0,2.5E2,1.4E1,2.67E2,6E1,2.89E2,1.1E1,8E0,3.2E1,1.7E1,4E0,1.75E2,1.4E1,1.8E1,2E0,6E0,1E1,1E1,5.3E1,1.7E1,5E0,2.6E1,3.9E1,3E1,3.1E1,3E0,1.8E1,4E0,1.65E2,2.42E2,3.02E2,1.19E2,2.8E1,1.5E1,2E1,1E0,3.6E1,1.11E2,1.5E1,1.5E1,5E0,6E0,7E0,3.2E1,1.4E1,6.4E1,2.1E1,3E0,1.75E2,3.5E1,9.7E1,3.78E2,8E0,1E0,1.95E2,5.5E1,3E0,1.1E1,7.3E1,1.94E2,2.5E1,3.5E1,1.5E1,2.74E2,5E0,6E0,1.2E1,2E1,2E0,1.5E1,3E0,1E0,8.4E1,9.1E1],"tree_param":{"num_deleted":"0","num_feature":"3","num_nodes":"125","size_leaf_vector":"1"}},{"base_weights":[-7.873626E-4,-5.392814E-2,2.80589E-1,-4.069976E-2,-1.2346348E0,6.9703555E-1,6.9202445E-2,4.922013E-3,-2.9254356E-1,-2.0340054E0,6.4744395E-1,4.9570188E-1,1.6357565E0,8.4745526E-1,-2.1351942E-1,-1.1902027E-1,1.8223393E-1,-1.6768118E0,-2.2004434E-1,-7.185772E-1,-2.8894112E0,1.300499E0,-2.6571083E-1,-4.928253E-1,6.3636583E-1,7.5526166E-1,2.4140167E0,2.8493974E-1,1.7458153E0,-3.1372195E-1,1.2313472E0,-2.6068863E-2,-3.416285E-1,4.495639E-1,-8.27207E-2,-4.2014217E-1,-3.0171342E0,1.2080918E-1,-4.7218004E-1,-1.485722E0,3.457119E-1,-3.6772153E0,-1.9373816E0,6.4977753E-1,2.0826864E-1,-5.8686477E-1,1.9379082E-1,-1.2972763E0,1.4663645E0,9.296219E-1,8.064564E-2,5.183501E-1,1.172797E0,1.867237E0,4.1609826E0,1.2984257E0,-9.007651E-2,1.9523638E0,-3.9466476E-1,-2.3086226E-1,-3.0742972E0,-6.723974E-1,2.6312082E0,-4.5309387E-2,8.790627E-2,-3.6292283E-3,-2.1762985E-1,1.0115554E-1,4.1106135E-1,2.3389892E-1,-5.04565E-2,1.9056234E-1,-3.0816543E-1,-4.9848893E-1,-1.3904951E0,-6.461367E-2,1.6889E-1,-1.1037879E0,-1.2002815E-1,-8.4318846E-1,-3.6183503E-2,-1.7214103E-1,6.03566E-1,-1.5402154E0,-4.9958554E-1,-4.8680592E-2,-6.5033644E-1,-5.4633886E-1,-2.030236E-1,9.557274E-1,-5.69315E-2,1.6721816E-1,7.500055E-1,-2.6203525E-1,2.544481E-1,7.79383E-1,-1.390524E-1,-6.9087183E-1,7.852348E-1,9.433419E-1,4.2237204E-2,3.5140115E-1,1.5210412E0,1.9666702E-1,4.5931286E-1,-9.289353E-1,3.804276E-2,3.7829164E-1,7.375409E-1,-1.939539E-1,-2.856331E-2,1.076505E-2,-2.2643982E-1,-1.0519732E0,-7.209235E-2,5.9151506E-1,-3.9954054E-1,9.704581E-1,4.3320086E-2],"categories":[],"categories_nodes":[],"categories_segments":[],"categories_sizes":[],"default_left":[0,0,0,0,0,0,0,0,0,0,0,0,0,0,0,0,0,0,0,0,0,0,0,0,0,0,0,0,0,0,0,0,0,0,0,0,0,0,0,0,0,0,0,0,0,0,0,0,0,0,0,0,0,0,0,0,0,0,0,0,0,0,0,0,0,0,0,0,0,0,0,0,0,0,0,0,0,0,0,0,0,0,0,0,0,0,0,0,0,0,0,0,0,0,0,0,0,0,0,0,0,0,0,0,0,0,0,0,0,0,0,0,0,0,0,0,0,0,0],"id":1,"left_children":[1,3,5,7,9,11,13,15,17,19,21,23,25,27,29,31,33,35,37,39,41,43,45,47,49,51,53,55,57,59,61,63,65,67,69,71,73,75,77,79,81,83,85,-1,-1,-1,-1,87,89,91,93,95,97,99,101,103,105,107,109,111,113,115,117,-1,-1,-1,-1,-1,-1,-1,-1,-1,-1,-1,-1,-1,-1,-1,-1,-1,-1,-1,-1,-1,-1,-1,-1,-1,-1,-1,-1,-1,-1,-1,-1,-1,-1,-1,-1,-1,-1,-1,-1,-1,-1,-1,-1,-1,-1,-1,-1,-1,-1,-1,-1,-1,-1,-1,-1],"loss_changes":[4.9792202E1,4.36981E1,4.6520275E1,3.1839012E1,4.7955734E1,3.2830475E1,7.763119E1,5.16004E1,4.228332E1,2.267868E1,6.3089595E0,2.0893036E1,1.9419655E1,4.700464E1,3.7884136E1,2.8587093E1,6.8459274E1,3.410357E1,3.486328E1,8.678268E0,2.6259918E0,1.6444454E0,8.969656E0,3.1847652E1,2.1110912E1,9.7478485E-1,7.513756E0,2.2541306E1,1.6686607E1,5.487418E1,4.7073837E1,3.8961502E1,5.146673E1,4.9302467E1,3.5952194E1,8.340627E0,1.4228394E1,2.5837366E1,5.2394894E1,1.0512865E1,8.814793E0,9.036652E0,2.9202156E0,0E0,0E0,0E0,0E0,3.3184986E0,1.7689865E1,4.8292877E1,3.4425842E1,2.5706554E1,3.1133654E1,3.0428398E1,2.2153053E0,1.3889904E0,2.9082401E1,8.447212E0,2.4011236E-1,3.3149734E1,7.7328873E0,1.6574263E1,1.4544548E1,0E0,0E0,0E0,0E0,0E0,0E0,0E0,0E0,0E0,0E0,0E0,0E0,0E0,0E0,0E0,0E0,0E0,0E0,0E0,0E0,0E0,0E0,0E0,0E0,0E0,0E0,0E0,0E0,0E0,0E0,0E0,0E0,0E0,0E0,0E0,0E0,0E0,0E0,0E0,0E0,0E0,0E0,0E0,0E0,0E0,0E0,0E0,0E0,0E0,0E0,0E0,0E0,0E0,0E0,0E0,0E0],"parents":[2147483647,0,0,1,1,2,2,3,3,4,4,5,5,6,6,7,7,8,8,9,9,10,10,11,11,12,12,13,13,14,14,15,15,16,16,17,17,18,18,19,19,20,20,21,21,22,22,23,23,24,24,25,25,26,26,27,27,28,28,29,29,30,30,31,31,32,32,33,33,34,34,35,35,36,36,37,37,38,38,39,39,40,40,41,41,42,42,47,47,48,48,49,49,50,50,51,51,52,52,53,53,54,54,55,55,56,56,57,57,58,58,59,59,60,60,61,61,62,62],"right_children":[2,4,6,8,10,12,14,16,18,20,22,24,26,28,30,32,34,36,38,40,42,44,46,48,50,52,54,56,58,60,62,64,66,68,70,72,74,76,78,80,82,84,86,-1,-1,-1,-1,88,90,92,94,96,98,100,102,104,106,108,110,112,114,116,118,-1,-1,-1,-1,-1,-1,-1,-1,-1,-1,-1,-1,-1,-1,-1,-1,-1,-1,-1,-1,-1,-1,-1,-1,-1,-1,-1,-1,-1,-1,-1,-1,-1,-1,-1,-1,-1,-1,-1,-1,-1,-1,-1,-1,-1,-1,-1,-1,-1,-1,-1,-1,-1,-1,-1,-1],"split_conditions":[2E1,1.4859623E1,9.70072E0,1.7E1,1.5E1,9.584476E0,2.1E1,1E1,7.672063E0,7E0,1.9E1,7.4048233E0,1E0,1.2307055E1,1.4097302E1,7E0,1E0,1E0,1.008576E1,1.6123222E1,1.1E1,1.6E1,1.6123222E1,2.3E1,8.928907E0,2.3E1,2.3E1,1.008576E1,1.4859623E1,1.3683821E1,1E0,5E0,1.1182517E1,1.6E1,7.797912E0,7.1638784E0,7.4048233E0,9.511259E0,1.0154764E1,4E0,1E0,1.6123222E1,1.2E1,6.4977753E-1,2.0826864E-1,-5.8686477E-1,1.9379082E-1,2.2E1,1E0,8.68075E0,9.111454E0,9.596279E0,9.596279E0,2.2E1,9.596279E0,9.738613E0,1.0154764E1,1.296526E1,1E0,2.3E1,1.3869858E1,1.4513379E1,1.4859623E1,-4.5309387E-2,8.790627E-2,-3.6292283E-3,-2.1762985E-1,1.0115554E-1,4.1106135E-1,2.3389892E-1,-5.04565E-2,1.9056234E-1,-3.0816543E-1,-4.9848893E-1,-1.3904951E0,-6.461367E-2,1.6889E-1,-1.1037879E0,-1.2002815E-1,-8.4318846E-1,-3.6183503E-2,-1.7214103E-1,6.03566E-1,-1.5402154E0,-4.9958554E-1,-4.8680592E-2,-6.5033644E-1,-5.4633886E-1,-2.030236E-1,9.557274E-1,-5.69315E-2,1.6721816E-1,7.500055E-1,-2.6203525E-1,2.544481E-1,7.79383E-1,-1.390524E-1,-6.9087183E-1,7.852348E-1,9.433419E-1,4.2237204E-2,3.5140115E-1,1.5210412E0,1.9666702E-1,4.5931286E-1,-9.289353E-1,3.804276E-2,3.7829164E-1,7.375409E-1,-1.939539E-1,-2.856331E-2,1.076505E-2,-2.2643982E-1,-1.0519732E0,-7.209235E-2,5.9151506E-1,-3.9954054E-1,9.704581E-1,4.3320086E-2],"split_indices":[2,1,1,2,2,1,2,2,1,2,2,1,0,1,1,2,0,0,1,1,2,2,1,2,1,2,2,1,1,1,0,2,1,2,1,1,1,1,1,2,0,1,2,0,0,0,0,2,0,1,1,1,1,2,1,1,1,1,0,2,1,1,1,0,0,0,0,0,0,0,0,0,0,0,0,0,0,0,0,0,0,0,0,0,0,0,0,0,0,0,0,0,0,0,0,0,0,0,0,0,0,0,0,0,0,0,0,0,0,0,0,0,0,0,0,0,0,0,0],"split_type":[0,0,0,0,0,0,0,0,0,0,0,0,0,0,0,0,0,0,0,0,0,0,0,0,0,0,0,0,0,0,0,0,0,0,0,0,0,0,0,0,0,0,0,0,0,0,0,0,0,0,0,0,0,0,0,0,0,0,0,0,0,0,0,0,0,0,0,0,0,0,0,0,0,0,0,0,0,0,0,0,0,0,0,0,0,0,0,0,0,0,0,0,0,0,0,0,0,0,0,0,0,0,0,0,0,0,0,0,0,0,0,0,0,0,0,0,0,0,0],"sum_hessian":[3.328E3,2.8E3,5.28E2,2.77E3,3E1,1.77E2,3.51E2,2.346E3,4.24E2,2.1E1,9E0,1.47E2,3E1,9.3E1,2.58E2,1.381E3,9.65E2,2E1,4.04E2,9E0,1.2E1,5E0,4E0,1.8E1,1.29E2,1.5E1,1.5E1,5.8E1,3.5E1,2.42E2,1.6E1,9.75E2,4.06E2,4.8E2,4.85E2,1.1E1,9E0,1.72E2,2.32E2,5E0,4E0,5E0,7E0,1E0,4E0,1E0,3E0,1.3E1,5E0,8.4E1,4.5E1,1.1E1,4E0,1.3E1,2E0,1.5E1,4.3E1,3.2E1,3E0,2.36E2,6E0,7E0,9E0,7.01E2,2.74E2,2.19E2,1.87E2,4.29E2,5.1E1,4.3E1,4.42E2,4E0,7E0,6E0,3E0,9.8E1,7.4E1,4E0,2.28E2,2E0,3E0,3E0,1E0,2E0,3E0,1E0,6E0,6E0,7E0,2E0,3E0,6.9E1,1.5E1,2E1,2.5E1,3E0,8E0,1E0,3E0,7E0,6E0,1E0,1E0,5E0,1E1,2E0,4.1E1,1.5E1,1.7E1,1E0,2E0,1.57E2,7.9E1,5E0,1E0,1E0,6E0,7E0,2E0],"tree_param":{"num_deleted":"0","num_feature":"3","num_nodes":"119","size_leaf_vector":"1"}},{"base_weights":[-5.976401E-4,9.519227E-3,-8.5429025E-1,-2.9431483E-2,2.1666491E-1,-1.5686563E0,6.628439E-2,-6.986665E-2,1.6035043E-1,1.7975685E-1,3.354647E0,-5.477985E-1,-2.2332656E0,1.0533565E0,-3.9438614E-1,1.6397435E-2,-4.1401705E-1,-4.800063E-1,2.3146006E-1,5.14059E-1,3.6933133E-3,1.9133602E0,1.5841622E0,-1.1865667E0,3.2828292E-1,-2.9140174E0,-1.4435436E0,5.5231076E-1,5.2761346E-1,-6.185972E-1,5.591831E-1,-7.101194E-2,1.0180466E-1,-1.4839396E-1,-8.160147E-1,7.310742E-3,-5.9495294E-1,6.2770104E-1,1.0657419E-1,3.5414767E-1,1.260924E0,5.4938567E-1,-1.8981391E-1,8.8532335E-1,2.3785591E-1,-6.7455065E-1,-9.3473434E-2,-4.4469833E-1,5.1303124E-1,-1.2321724E0,-1.2905955E0,-1.8499812E0,-1.4948718E-1,1.9809818E-1,6.570855E-2,-4.5499408E-1,-9.2247725E-2,-4.6644118E-2,2.9827654E-1,-7.030742E-2,2.0988412E-2,1.1745517E-1,-6.226067E-2,-8.6590014E-2,1.686379E-1,-2.2493769E-1,-7.0933896E-1,-2.1765278E-1,5.616018E-1,-2.7679363E-1,2.1433346E-1,2.54141E-1,5.205437E-3,-2.4960686E-3,1.9870482E-1,1.7238064E-1,5.6053144E-1,5.8643054E-2,3.615696E-1,-6.254857E-1,-3.807009E-2,-1.9104768E-2,1.2613994E-1,-1.3539696E-1,1.4701138E-1,-1.9100991E-1,1.9695856E-2,-9.6229084E-2,-4.5208552E-1,-4.1378405E-2,-6.4944184E-1,1.9591141E-2,-8.686037E-2,-2.5119802E-1,8.8699915E-2],"categories":[],"categories_nodes":[],"categories_segments":[],"categories_sizes":[],"default_left":[0,0,0,0,0,0,0,0,0,0,0,0,0,0,0,0,0,0,0,0,0,0,0,0,0,0,0,0,0,0,0,0,0,0,0,0,0,0,0,0,0,0,0,0,0,0,0,0,0,0,0,0,0,0,0,0,0,0,0,0,0,0,0,0,0,0,0,0,0,0,0,0,0,0,0,0,0,0,0,0,0,0,0,0,0,0,0,0,0,0,0,0,0,0,0],"id":2,"left_children":[1,3,5,7,9,11,13,15,17,19,21,23,25,27,29,31,33,35,37,39,41,43,-1,45,47,49,51,-1,53,55,57,59,61,63,65,67,-1,69,71,73,75,77,79,-1,81,-1,83,85,-1,-1,87,89,91,-1,-1,-1,93,-1,-1,-1,-1,-1,-1,-1,-1,-1,-1,-1,-1,-1,-1,-1,-1,-1,-1,-1,-1,-1,-1,-1,-1,-1,-1,-1,-1,-1,-1,-1,-1,-1,-1,-1,-1,-1,-1],"loss_changes":[2.875969E1,2.6559715E1,2.5751438E1,2.1275476E1,5.973754E1,1.3702999E1,8.6003E0,6.784346E1,2.2286907E1,3.0369047E1,6.5510178E0,5.9856577E0,2.7823563E0,1.5133462E0,3.1253195E0,1.3653967E1,4.878408E1,3.5907997E1,2.1656975E1,2.0812374E1,3.590113E1,7.9915676E0,0E0,6.754592E0,6.1010895E0,6.321846E0,3.931078E0,0E0,6.0136914E-2,5.05966E0,1.0873773E0,2.0833202E1,8.297951E1,2.7763342E1,1.6889809E1,5.3284622E1,0E0,1.4779888E1,2.212043E1,1.6539068E1,1.1851845E1,2.0422176E1,2.9662146E1,0E0,1.9196865E-1,0E0,1.056403E0,4.3375367E-1,0E0,0E0,3.559413E-1,2.9353943E0,1.0915046E-1,0E0,0E0,0E0,2.5597825E0,0E0,0E0,0E0,0E0,0E0,0E0,0E0,0E0,0E0,0E0,0E0,0E0,0E0,0E0,0E0,0E0,0E0,0E0,0E0,0E0,0E0,0E0,0E0,0E0,0E0,0E0,0E0,0E0,0E0,0E0,0E0,0E0,0E0,0E0,0E0,0E0,0E0,0E0],"parents":[2147483647,0,0,1,1,2,2,3,3,4,4,5,5,6,6,7,7,8,8,9,9,10,10,11,11,12,12,13,13,14,14,15,15,16,16,17,17,18,18,19,19,20,20,21,21,23,23,24,24,25,25,26,26,28,28,29,29,30,30,31,31,32,32,33,33,34,34,35,35,37,37,38,38,39,39,40,40,41,41,42,42,44,44,46,46,47,47,50,50,51,51,52,52,56,56],"right_children":[2,4,6,8,10,12,14,16,18,20,22,24,26,28,30,32,34,36,38,40,42,44,-1,46,48,50,52,-1,54,56,58,60,62,64,66,68,-1,70,72,74,76,78,80,-1,82,-1,84,86,-1,-1,88,90,92,-1,-1,-1,94,-1,-1,-1,-1,-1,-1,-1,-1,-1,-1,-1,-1,-1,-1,-1,-1,-1,-1,-1,-1,-1,-1,-1,-1,-1,-1,-1,-1,-1,-1,-1,-1,-1,-1,-1,-1,-1,-1],"split_conditions":[1.4859623E1,2E1,1.5E1,1.3003409E1,1.47572E1,7E0,1.9E1,1.2234733E1,2E0,9.70072E0,1E0,1.6123222E1,1.1E1,1.6E1,2.2E1,1E1,1.2E1,1.4471217E1,1.32046175E1,9.584476E0,2.1E1,2.1E1,1.5841622E0,4E0,1E0,1.6123222E1,1E0,5.5231076E-1,1.6123222E1,1.6123222E1,1E0,1E0,1E0,1E1,1.296526E1,1.3683821E1,-5.9495294E-1,3E0,4E0,2.2E1,1E0,1.2307055E1,9.738613E0,8.8532335E-1,2.3E1,-6.7455065E-1,5E0,5E0,5.1303124E-1,-1.2321724E0,1E0,1.2E1,1.4E1,1.9809818E-1,6.570855E-2,-4.5499408E-1,1E0,-4.6644118E-2,2.9827654E-1,-7.030742E-2,2.0988412E-2,1.1745517E-1,-6.226067E-2,-8.6590014E-2,1.686379E-1,-2.2493769E-1,-7.0933896E-1,-2.1765278E-1,5.616018E-1,-2.7679363E-1,2.1433346E-1,2.54141E-1,5.205437E-3,-2.4960686E-3,1.9870482E-1,1.7238064E-1,5.6053144E-1,5.8643054E-2,3.615696E-1,-6.254857E-1,-3.807009E-2,-1.9104768E-2,1.2613994E-1,-1.3539696E-1,1.4701138E-1,-1.9100991E-1,1.9695856E-2,-9.6229084E-2,-4.5208552E-1,-4.1378405E-2,-6.4944184E-1,1.9591141E-2,-8.686037E-2,-2.5119802E-1,8.8699915E-2],"split_indices":[1,2,2,1,1,2,2,1,2,1,0,1,2,2,2,2,2,1,1,1,2,2,0,2,0,1,0,0,1,1,0,0,0,2,1,1,0,2,2,2,0,1,1,0,2,0,2,2,0,0,0,2,2,0,0,0,0,0,0,0,0,0,0,0,0,0,0,0,0,0,0,0,0,0,0,0,0,0,0,0,0,0,0,0,0,0,0,0,0,0,0,0,0,0,0],"split_type":[0,0,0,0,0,0,0,0,0,0,0,0,0,0,0,0,0,0,0,0,0,0,0,0,0,0,0,0,0,0,0,0,0,0,0,0,0,0,0,0,0,0,0,0,0,0,0,0,0,0,0,0,0,0,0,0,0,0,0,0,0,0,0,0,0,0,0,0,0,0,0,0,0,0,0,0,0,0,0,0,0,0,0,0,0,0,0,0,0,0,0,0,0,0,0],"sum_hessian":[3.328E3,3.29E3,3.8E1,2.77E3,5.2E2,2.1E1,1.7E1,2.284E3,4.86E2,5.15E2,5E0,9E0,1.2E1,5E0,1.2E1,1.827E3,4.57E2,4.8E1,4.38E2,1.77E2,3.38E2,4E0,1E0,5E0,4E0,5E0,7E0,1E0,4E0,1E1,2E0,9.03E2,9.24E2,2.76E2,1.81E2,3.7E1,1.1E1,1.04E2,3.34E2,1.47E2,3E1,8.8E1,2.5E2,2E0,2E0,2E0,3E0,3E0,1E0,2E0,3E0,5E0,2E0,2E0,2E0,3E0,7E0,1E0,1E0,4.18E2,4.85E2,4.77E2,4.47E2,2.31E2,4.5E1,1.75E2,6E0,2.7E1,1E1,5E0,9.9E1,3.5E1,2.99E2,6.8E1,7.9E1,1.5E1,1.5E1,5.8E1,3E1,7E0,2.43E2,1E0,1E0,2E0,1E0,2E0,1E0,1E0,2E0,1E0,4E0,1E0,1E0,2E0,5E0],"tree_param":{"num_deleted":"0","num_feature":"3","num_nodes":"95","size_leaf_vector":"1"}},{"base_weights":[-4.3249488E-4,6.996842E-2,-7.3856495E-2,-1.4604001E-1,1.2709038E-1,-1.7302978E-1,9.803467E-2,9.793276E-2,-5.4142195E-1,1.0620078E-1,1.1058546E0,1.2185234E-1,-2.8109345E-1,-7.89062E-2,3.827209E-1,-3.1248268E-1,6.455625E-1,-4.2813355E-1,-5.3696054E-1,1.2972094E-1,-7.1161133E-1,3.945209E-1,2.8348737E0,-4.379781E-2,8.4263563E-1,-1.0533959E0,-1.9712931E-1,4.9276385E-2,-8.275505E-1,8.869077E-1,2.4054278E-1,-2.510814E-1,-2.1378012E0,4.323022E-1,1.2943643E0,-4.7657174E-1,8.439958E-1,2.6684016E-1,-1.1258554E-3,-1.5263027E0,2.3313533E-1,5.2495223E-1,7.142088E-2,4.0242352E0,1.9183603E-1,-1.5791959E-1,1.2900562E0,1.484938E0,2.820186E-1,-1.4076662E0,4.6211142E-2,-1.606653E-1,-1.6183544E0,1.4634055E-1,-5.540826E-1,-1.3417381E0,-3.714758E-1,4.12672E-1,1.7070671E0,-2.628547E0,3.2068428E-1,-1.771481E-1,3.985672E-2,-4.6306517E-2,-8.242495E-1,2.1225506E-1,-3.0769956E-1,4.9289504E-1,3.1174713E-1,-2.6512596E-1,-7.334286E-2,6.259958E-2,3.9177075E-1,1.248046E-2,-2.0377721E-1,-8.7842476E-1,-2.978558E-1,2.4706103E-1,-8.9801526E-1,-5.434332E-1,1.7062703E-1,1.4909045E0,5.212132E-1,6.5039084E-3,-2.1992128E-1,8.13904E-1,-2.4833001E-1,8.35631E-2,6.570616E-1,2.7359003E-1,-2.0592156E-1,-3.4851095E-1,-7.2687775E-1,-1.97149E-1,2.7022693E-1,-4.1862437E-1,-3.4936484E-2,-7.753398E-2,-1.0572478E0,1.3776255E-1,-2.0284366E-2,-3.562836E-1,-2.094238E-2,-5.884096E-1,-2.8043228E-1,7.6360226E-2,-3.043364E-1,-3.33206E-2,2.1517242E-1,7.638396E-1,3.2260713E-1,-8.7037486E-1,-2.3066054E-1,2.2898255E-1,6.2800996E-2],"categories":[],"categories_nodes":[],"categories_segments":[],"categories_sizes":[],"default_left":[0,0,0,0,0,0,0,0,0,0,0,0,0,0,0,0,0,0,0,0,0,0,0,0,0,0,0,0,0,0,0,0,0,0,0,0,0,0,0,0,0,0,0,0,0,0,0,0,0,0,0,0,0,0,0,0,0,0,0,0,0,0,0,0,0,0,0,0,0,0,0,0,0,0,0,0,0,0,0,0,0,0,0,0,0,0,0,0,0,0,0,0,0,0,0,0,0,0,0,0,0,0,0,0,0,0,0,0,0,0,0,0,0,0,0],"id":3,"left_children":[1,3,5,7,9,11,13,15,17,19,21,23,25,27,29,31,33,35,-1,37,39,41,43,45,47,49,51,53,55,57,59,61,63,65,67,69,-1,71,73,75,77,-1,79,81,-1,83,85,87,89,91,93,95,97,99,101,103,105,107,109,111,113,-1,-1,-1,-1,-1,-1,-1,-1,-1,-1,-1,-1,-1,-1,-1,-1,-1,-1,-1,-1,-1,-1,-1,-1,-1,-1,-1,-1,-1,-1,-1,-1,-1,-1,-1,-1,-1,-1,-1,-1,-1,-1,-1,-1,-1,-1,-1,-1,-1,-1,-1,-1,-1,-1],"loss_changes":[1.7213158E1,2.099456E1,2.780359E1,3.4393646E1,2.7382412E1,3.2983738E1,3.0102655E1,4.987274E1,1.8468788E1,2.5444136E1,3.3319054E1,3.322951E1,4.888055E1,3.5451187E1,1.6202377E1,1.3697E1,1.2584995E1,2.1124014E1,0E0,2.3001442E1,2.8833881E1,9.071006E0,1.831588E1,3.475807E1,1.8305676E1,2.889235E1,3.51873E1,1.8587479E1,1.2165001E1,1.8742985E1,4.223091E1,1.6237259E1,4.4131165E0,3.0017208E1,3.3899307E-1,1.1597073E1,0E0,3.756755E1,1.9064692E1,1.2048439E1,3.6754112E1,0E0,1.788576E1,2.1762924E0,0E0,2.1708214E1,5.649002E1,1.9809856E1,1.8317625E1,1.1169403E1,1.2012184E1,3.630275E1,4.314841E1,1.8305586E1,1.3416391E1,4.4707184E0,1.2333546E1,5.3436694E0,6.802822E0,3.0501175E-1,8.513752E0,0E0,0E0,0E0,0E0,0E0,0E0,0E0,0E0,0E0,0E0,0E0,0E0,0E0,0E0,0E0,0E0,0E0,0E0,0E0,0E0,0E0,0E0,0E0,0E0,0E0,0E0,0E0,0E0,0E0,0E0,0E0,0E0,0E0,0E0,0E0,0E0,0E0,0E0,0E0,0E0,0E0,0E0,0E0,0E0,0E0,0E0,0E0,0E0,0E0,0E0,0E0,0E0,0E0,0E0],"parents":[2147483647,0,0,1,1,2,2,3,3,4,4,5,5,6,6,7,7,8,8,9,9,10,10,11,11,12,12,13,13,14,14,15,15,16,16,17,17,19,19,20,20,21,21,22,22,23,23,24,24,25,25,26,26,27,27,28,28,29,29,30,30,31,31,32,32,33,33,34,34,35,35,37,37,38,38,39,39,40,40,42,42,43,43,45,45,46,46,47,47,48,48,49,49,50,50,51,51,52,52,53,53,54,54,55,55,56,56,57,57,58,58,59,59,60,60],"right_children":[2,4,6,8,10,12,14,16,18,20,22,24,26,28,30,32,34,36,-1,38,40,42,44,46,48,50,52,54,56,58,60,62,64,66,68,70,-1,72,74,76,78,-1,80,82,-1,84,86,88,90,92,94,96,98,100,102,104,106,108,110,112,114,-1,-1,-1,-1,-1,-1,-1,-1,-1,-1,-1,-1,-1,-1,-1,-1,-1,-1,-1,-1,-1,-1,-1,-1,-1,-1,-1,-1,-1,-1,-1,-1,-1,-1,-1,-1,-1,-1,-1,-1,-1,-1,-1,-1,-1,-1,-1,-1,-1,-1,-1,-1,-1,-1],"split_conditions":[1.0699715E1,5E0,1.3003409E1,3E0,1.0638331E1,6E0,1.4E1,9.676036E0,1.0490365E1,1.0490365E1,1.8E1,5E0,8E0,1.47572E1,1.3140137E1,9.596279E0,1.0414423E1,1.0473402E1,-5.3696054E-1,1E0,1.5E1,6E0,2.2E1,1.2815824E1,1E0,1.2550326E1,1.296526E1,1.2E1,1E0,1.311946E1,1.32046175E1,1E0,1E0,1.008576E1,1E0,8.647051E0,8.439958E-1,2.3E1,2.3E1,7E0,2.3E1,5.2495223E-1,7E0,1E0,1.9183603E-1,1.2408631E1,3E0,1.1782786E1,1.2323822E1,1.238155E1,1E0,1.0995807E1,1.6E1,1.3328174E1,1E0,6E0,7E0,1.8E1,1.6E1,1E0,1.6E1,-1.771481E-1,3.985672E-2,-4.6306517E-2,-8.242495E-1,2.1225506E-1,-3.0769956E-1,4.9289504E-1,3.1174713E-1,-2.6512596E-1,-7.334286E-2,6.259958E-2,3.9177075E-1,1.248046E-2,-2.0377721E-1,-8.7842476E-1,-2.978558E-1,2.4706103E-1,-8.9801526E-1,-5.434332E-1,1.7062703E-1,1.4909045E0,5.212132E-1,6.5039084E-3,-2.1992128E-1,8.13904E-1,-2.4833001E-1,8.35631E-2,6.570616E-1,2.7359003E-1,-2.0592156E-1,-3.4851095E-1,-7.2687775E-1,-1.97149E-1,2.7022693E-1,-4.1862437E-1,-3.4936484E-2,-7.753398E-2,-1.0572478E0,1.3776255E-1,-2.0284366E-2,-3.562836E-1,-2.094238E-2,-5.884096E-1,-2.8043228E-1,7.6360226E-2,-3.043364E-1,-3.33206E-2,2.1517242E-1,7.638396E-1,3.2260713E-1,-8.7037486E-1,-2.3066054E-1,2.2898255E-1,6.2800996E-2],"split_indices":[1,2,1,2,1,2,2,1,1,1,2,2,2,1,1,1,1,1,0,0,2,2,2,1,0,1,1,2,0,1,1,0,0,1,2,1,0,2,2,2,2,0,2,0,0,1,2,1,1,1,0,1,2,1,0,2,2,2,2,0,2,0,0,0,0,0,0,0,0,0,0,0,0,0,0,0,0,0,0,0,0,0,0,0,0,0,0,0,0,0,0,0,0,0,0,0,0,0,0,0,0,0,0,0,0,0,0,0,0,0,0,0,0,0,0],"split_type":[0,0,0,0,0,0,0,0,0,0,0,0,0,0,0,0,0,0,0,0,0,0,0,0,0,0,0,0,0,0,0,0,0,0,0,0,0,0,0,0,0,0,0,0,0,0,0,0,0,0,0,0,0,0,0,0,0,0,0,0,0,0,0,0,0,0,0,0,0,0,0,0,0,0,0,0,0,0,0,0,0,0,0,0,0,0,0,0,0,0,0,0,0,0,0,0,0,0,0,0,0,0,0,0,0,0,0,0,0,0,0,0,0,0,0],"sum_hessian":[3.328E3,1.699E3,1.629E3,3.55E2,1.344E3,1.033E3,5.96E2,2.2E2,1.35E2,1.317E3,2.7E1,2.77E2,7.56E2,3.68E2,2.28E2,1.26E2,9.4E1,1.25E2,1E1,1.281E3,3.6E1,2E1,7E0,2.26E2,5.1E1,7.3E1,6.83E2,3.15E2,5.3E1,4.9E1,1.79E2,1.23E2,3E0,7.2E1,2.2E1,1.24E2,1E0,6.25E2,6.56E2,1.9E1,1.7E1,3E0,1.7E1,4E0,3E0,2.09E2,1.7E1,2.3E1,2.8E1,5.5E1,1.8E1,6.67E2,1.6E1,2.72E2,4.3E1,2.4E1,2.9E1,3.2E1,1.7E1,4E0,1.75E2,6.5E1,5.8E1,1E0,2E0,6.1E1,1.1E1,7E0,1.5E1,4.4E1,8E1,5.93E2,3.2E1,6.18E2,3.8E1,4E0,1.5E1,1.5E1,2E0,3E0,1.4E1,2E0,2E0,1.6E2,4.9E1,1E1,7E0,9E0,1.4E1,1.7E1,1.1E1,4.6E1,9E0,1E1,8E0,2.2E1,6.45E2,1E1,6E0,1.1E2,1.62E2,1.8E1,2.5E1,8E0,1.6E1,1.5E1,1.4E1,1.2E1,2E1,6E0,1.1E1,3E0,1E0,3.4E1,1.41E2],"tree_param":{"num_deleted":"0","num_feature":"3","num_nodes":"115","size_leaf_vector":"1"}},{"base_weights":[-8.6293917E-4,6.073202E-3,-5.8614445E-1,-1.8432397E-2,1.3639747E-1,-1.0414214E0,2.8687583E-3,1.8708212E-2,-2.2349258E-1,1.0602917E-1,2.7253387E0,-2.491951E-1,-1.5707169E0,7.933375E-1,-3.6218363E-1,4.0575135E-1,-1.1318865E-2,-1.0065058E0,-1.304241E-1,1.24643534E-1,-6.9233125E-1,1.4875828E0,1.3371177E0,-8.939247E-1,5.743195E-1,-2.347624E0,-1.1028823E0,4.3511668E-1,3.7184945E-1,-5.462456E-1,4.3343797E-1,2.4024272E-1,1.5007299E0,-3.0998927E-1,4.855302E-2,-8.0720705E-1,-1.058286E0,2.6801436E0,-1.9788975E-1,9.330448E-2,1.8692633E0,6.956986E-1,1.6030948E-1,-4.8843557E-1,-1.1979818E-1,3.7280372E-1,-2.8547987E-1,-3.9729882E-2,-9.125631E-1,-4.2045707E-1,-3.0453968E-1,1.4591809E-1,4.0006638E-2,-1.2225022E0,-1.3983655E-1,-4.906769E-2,2.4411479E-1,-6.011676E-2,2.0870754E-1,6.900038E-1,-3.0420783E-1,-6.933088E-2,-3.1347537E-1,1.16002E-1,-7.1268906E-3,1.291365E-2,-4.6452862E-1,1.0273651E0,4.1991255E-1,-8.859643E-2,1.794817E-1,3.8680986E-2,-6.409377E-1,1.6417876E-1,1.0154847E0,-2.5659371E-2,9.779864E-2,-1.2358972E-1,1.13505654E-1,-1.8727227E-1,5.8806326E-2,-3.0583763E-2,-1.3684817E-1,-1.06031805E-1,-4.1831306E-1,1.1610032E-1,-1.600018E-1],"categories":[],"categories_nodes":[],"categories_segments":[],"categories_sizes":[],"default_left":[0,0,0,0,0,0,0,0,0,0,0,0,0,0,0,0,0,0,0,0,0,0,0,0,0,0,0,0,0,0,0,0,0,0,0,0,0,0,0,0,0,0,0,0,0,0,0,0,0,0,0,0,0,0,0,0,0,0,0,0,0,0,0,0,0,0,0,0,0,0,0,0,0,0,0,0,0,0,0,0,0,0,0,0,0,0,0],"id":4,"left_children":[1,3,5,7,9,11,13,15,17,19,21,23,25,27,29,31,33,35,37,39,-1,41,-1,43,45,47,49,-1,51,53,55,57,59,61,63,65,-1,67,69,71,73,-1,75,-1,77,-1,79,-1,-1,-1,81,-1,-1,83,85,-1,-1,-1,-1,-1,-1,-1,-1,-1,-1,-1,-1,-1,-1,-1,-1,-1,-1,-1,-1,-1,-1,-1,-1,-1,-1,-1,-1,-1,-1,-1,-1],"loss_changes":[1.3517952E1,1.0512897E1,1.0461388E1,2.1108286E1,4.0672966E1,8.83367E0,5.481459E0,2.7280897E1,3.084011E1,2.3472229E1,6.2304344E0,5.8228407E0,2.1358757E0,1.1223094E0,2.1405313E0,3.026706E1,3.8979843E1,1.976295E1,7.277436E1,2.7873726E1,0E0,5.1457996E0,0E0,3.2151074E0,3.228035E0,5.748764E0,1.9573603E0,0E0,7.1727276E-2,2.8522544E0,8.141648E-1,2.9840847E1,4.6552296E1,2.0861713E1,4.4409027E1,2.716635E1,0E0,3.7851105E0,2.9110825E1,4.039834E1,1.6181181E1,0E0,1.5007988E-1,0E0,7.3804146E-1,0E0,6.1170554E-1,0E0,0E0,0E0,7.63661E-2,0E0,0E0,1.0465145E-1,1.8648992E0,0E0,0E0,0E0,0E0,0E0,0E0,0E0,0E0,0E0,0E0,0E0,0E0,0E0,0E0,0E0,0E0,0E0,0E0,0E0,0E0,0E0,0E0,0E0,0E0,0E0,0E0,0E0,0E0,0E0,0E0,0E0,0E0],"parents":[2147483647,0,0,1,1,2,2,3,3,4,4,5,5,6,6,7,7,8,8,9,9,10,10,11,11,12,12,13,13,14,14,15,15,16,16,17,17,18,18,19,19,21,21,23,23,24,24,25,25,26,26,28,28,29,29,30,30,31,31,32,32,33,33,34,34,35,35,37,37,38,38,39,39,40,40,42,42,44,44,46,46,50,50,53,53,54,54],"right_children":[2,4,6,8,10,12,14,16,18,20,22,24,26,28,30,32,34,36,38,40,-1,42,-1,44,46,48,50,-1,52,54,56,58,60,62,64,66,-1,68,70,72,74,-1,76,-1,78,-1,80,-1,-1,-1,82,-1,-1,84,86,-1,-1,-1,-1,-1,-1,-1,-1,-1,-1,-1,-1,-1,-1,-1,-1,-1,-1,-1,-1,-1,-1,-1,-1,-1,-1,-1,-1,-1,-1,-1,-1],"split_conditions":[1.4859623E1,2E1,1.5E1,1.7E1,1.47572E1,7E0,1.9E1,7.692132E0,7.797912E0,1.4513379E1,1E0,1.6123222E1,9E0,1.6E1,2.2E1,1.5E1,9.163347E0,7.7481422E0,8.168363E0,1.4097302E1,-6.9233125E-1,2.1E1,1.3371177E0,4E0,4E0,1E0,1E0,4.3511668E-1,1.6123222E1,1.6123222E1,1E0,7.4048233E0,7.672063E0,9.111454E0,9.757343E0,1E0,-1.058286E0,1.9E1,1.3543484E1,1.3683821E1,2.2E1,6.956986E-1,2.3E1,-4.8843557E-1,5E0,3.7280372E-1,5E0,-3.9729882E-2,-9.125631E-1,-4.2045707E-1,1.6123222E1,1.4591809E-1,4.0006638E-2,1E0,2E1,-4.906769E-2,2.4411479E-1,-6.011676E-2,2.0870754E-1,6.900038E-1,-3.0420783E-1,-6.933088E-2,-3.1347537E-1,1.16002E-1,-7.1268906E-3,1.291365E-2,-4.6452862E-1,1.0273651E0,4.1991255E-1,-8.859643E-2,1.794817E-1,3.8680986E-2,-6.409377E-1,1.6417876E-1,1.0154847E0,-2.5659371E-2,9.779864E-2,-1.2358972E-1,1.13505654E-1,-1.8727227E-1,5.8806326E-2,-3.0583763E-2,-1.3684817E-1,-1.06031805E-1,-4.1831306E-1,1.1610032E-1,-1.600018E-1],"split_indices":[1,2,2,2,1,2,2,1,1,1,0,1,2,2,2,2,1,1,1,1,0,2,0,2,2,0,0,0,1,1,0,1,1,1,1,0,0,2,1,1,2,0,2,0,2,0,2,0,0,0,1,0,0,0,2,0,0,0,0,0,0,0,0,0,0,0,0,0,0,0,0,0,0,0,0,0,0,0,0,0,0,0,0,0,0,0,0],"split_type":[0,0,0,0,0,0,0,0,0,0,0,0,0,0,0,0,0,0,0,0,0,0,0,0,0,0,0,0,0,0,0,0,0,0,0,0,0,0,0,0,0,0,0,0,0,0,0,0,0,0,0,0,0,0,0,0,0,0,0,0,0,0,0,0,0,0,0,0,0,0,0,0,0,0,0,0,0,0,0,0,0,0,0,0,0,0,0],"sum_hessian":[3.328E3,3.29E3,3.8E1,2.77E3,5.2E2,2.1E1,1.7E1,2.346E3,4.24E2,5.15E2,5E0,9E0,1.2E1,5E0,1.2E1,1.68E2,2.178E3,4.4E1,3.8E2,5.12E2,3E0,4E0,1E0,5E0,4E0,3E0,9E0,1E0,4E0,1E1,2E0,1.47E2,2.1E1,3.63E2,1.815E3,4.2E1,2E0,8E0,3.72E2,5.04E2,8E0,2E0,2E0,2E0,3E0,2E0,2E0,1E0,2E0,6E0,3E0,2E0,2E0,3E0,7E0,1E0,1E0,7.5E1,7.2E1,1.6E1,5E0,3.29E2,3.4E1,3.19E2,1.496E3,2E1,2.2E1,4E0,4E0,3.32E2,4E1,4.97E2,7E0,5E0,3E0,1E0,1E0,2E0,1E0,1E0,1E0,2E0,1E0,1E0,2E0,3E0,4E0],"tree_param":{"num_deleted":"0","num_feature":"3","num_nodes":"87","size_leaf_vector":"1"}},{"base_weights":[-3.8372885E-4,6.562088E-2,-3.7714787E-2,-1.5126115E-2,3.4205684E-1,-2.2276301E-2,-4.1293564E-1,-5.258362E-2,3.8445362E-1,2.9170302E-1,1.322821E0,-5.33544E-2,1.3308838E-1,-8.0821663E-1,4.9993023E-1,7.964303E-2,-1.8530762E-1,6.498551E-1,-3.9214358E-1,3.8235736E-1,-1.214475E0,-9.7397804E-1,1.8289644E0,-4.6959558E-1,-3.336659E-2,-7.016277E-2,3.218079E-1,-4.5376042E-1,-2.3136835E0,2.2369757E-1,1.9632854E0,-3.8304964E-1,2.5289753E-1,-5.459665E-1,-3.0557706E-3,1.5969601E0,-2.5908232E-2,-1.2536788E0,2.264091E-1,2.265003E-1,6.4533913E-1,1.3294388E0,-7.8581274E-1,-6.7766595E-1,2.3937578E-1,1.2335696E0,1.189481E0,-1.0708658E0,7.057987E-1,6.1605903E-3,-3.5927624E-1,1.3220128E-1,-1.0650227E0,1.5163784E0,2.411966E-1,-1.5624844E0,-5.1944964E-2,-9.222353E-1,-7.8633916E-1,6.149567E-1,-5.365567E-1,9.204737E-2,1.13655E0,6.638177E-2,-2.3759095E-1,2.1383865E-3,1.8615353E-1,-3.836544E-1,-1.1165208E-1,1.9856463E-1,-4.7544774E-2,1.6856538E-1,1.253494E0,2.2070827E-1,-2.2381884E-1,3.9443576E-1,-4.3033713E-1,-3.416022E-2,2.9840997E-1,2.7309975E-1,-5.3309757E-2,9.8199084E-2,5.245982E-1,6.0584545E-1,-1.3325901E-2,-2.0565483E-1,-9.3137985E-1,-9.22354E-2,3.9597407E-1,9.3596175E-2,-9.426769E-3,-1.6510007E-1,4.8502546E-2,-4.2190827E-2,1.3496009E-1,-4.450701E-1,-1.6215281E-1,7.897974E-1,-7.01376E-1,1.6518058E-1,-1.4892825E-2,-2.449753E-1,-5.779797E-1,1.5011053E-1,-2.9851726E-1,-4.5935056E-1,3.289467E-1,3.1866882E-2,7.870008E-1,8.312874E-2,-4.1707423E-2],"categories":[],"categories_nodes":[],"categories_segments":[],"categories_sizes":[],"default_left":[0,0,0,0,0,0,0,0,0,0,0,0,0,0,0,0,0,0,0,0,0,0,0,0,0,0,0,0,0,0,0,0,0,0,0,0,0,0,0,0,0,0,0,0,0,0,0,0,0,0,0,0,0,0,0,0,0,0,0,0,0,0,0,0,0,0,0,0,0,0,0,0,0,0,0,0,0,0,0,0,0,0,0,0,0,0,0,0,0,0,0,0,0,0,0,0,0,0,0,0,0,0,0,0,0,0,0,0,0,0,0],"id":5,"left_children":[1,3,5,7,9,11,13,15,17,19,21,23,25,27,29,31,33,35,37,39,41,43,45,47,49,51,53,55,57,59,61,63,65,67,69,71,73,-1,75,77,79,81,-1,-1,-1,-1,83,85,87,89,91,93,95,97,99,101,103,-1,105,107,-1,109,-1,-1,-1,-1,-1,-1,-1,-1,-1,-1,-1,-1,-1,-1,-1,-1,-1,-1,-1,-1,-1,-1,-1,-1,-1,-1,-1,-1,-1,-1,-1,-1,-1,-1,-1,-1,-1,-1,-1,-1,-1,-1,-1,-1,-1,-1,-1,-1,-1],"loss_changes":[8.205204E0,2.6857786E1,1.2312177E1,1.3969703E1,1.30469055E1,9.8764305E0,3.0714489E1,1.4984611E1,1.6743637E1,3.5965168E1,1.6893991E1,1.4161182E1,1.3102472E1,3.043385E1,1.0070707E1,3.4406883E1,2.7999628E1,3.84425E1,5.0135002E1,9.936771E0,5.70915E1,8.6325865E0,1.1167858E1,5.5880714E1,2.09617E1,3.335924E1,1.6678621E1,2.1748457E1,1.0358593E1,1.9207747E1,1.331292E1,2.908823E1,2.8184277E1,1.7737896E1,2.9456059E1,6.444966E1,2.0293846E1,0E0,3.6231316E1,4.0902634E1,2.0008839E1,1.948245E0,0E0,0E0,0E0,0E0,1.0331127E1,3.862407E1,1.7206608E1,1.669899E1,1.760653E1,1.2023873E1,5.3450146E0,5.348216E1,1.5055201E1,1.9574776E0,1.9770962E1,0E0,8.690838E0,2.0155945E1,0E0,1.6680175E-1,0E0,0E0,0E0,0E0,0E0,0E0,0E0,0E0,0E0,0E0,0E0,0E0,0E0,0E0,0E0,0E0,0E0,0E0,0E0,0E0,0E0,0E0,0E0,0E0,0E0,0E0,0E0,0E0,0E0,0E0,0E0,0E0,0E0,0E0,0E0,0E0,0E0,0E0,0E0,0E0,0E0,0E0,0E0,0E0,0E0,0E0,0E0,0E0,0E0],"parents":[2147483647,0,0,1,1,2,2,3,3,4,4,5,5,6,6,7,7,8,8,9,9,10,10,11,11,12,12,13,13,14,14,15,15,16,16,17,17,18,18,19,19,20,20,21,21,22,22,23,23,24,24,25,25,26,26,27,27,28,28,29,29,30,30,31,31,32,32,33,33,34,34,35,35,36,36,38,38,39,39,40,40,41,41,46,46,47,47,48,48,49,49,50,50,51,51,52,52,53,53,54,54,55,55,56,56,58,58,59,59,61,61],"right_children":[2,4,6,8,10,12,14,16,18,20,22,24,26,28,30,32,34,36,38,40,42,44,46,48,50,52,54,56,58,60,62,64,66,68,70,72,74,-1,76,78,80,82,-1,-1,-1,-1,84,86,88,90,92,94,96,98,100,102,104,-1,106,108,-1,110,-1,-1,-1,-1,-1,-1,-1,-1,-1,-1,-1,-1,-1,-1,-1,-1,-1,-1,-1,-1,-1,-1,-1,-1,-1,-1,-1,-1,-1,-1,-1,-1,-1,-1,-1,-1,-1,-1,-1,-1,-1,-1,-1,-1,-1,-1,-1,-1,-1],"split_conditions":[9.757343E0,9.584476E0,2.3E1,2.2E1,2.3E1,1.9E1,1.3090454E1,8.611554E0,9.000648E0,2.2E1,9.596279E0,9.899651E0,1.2166592E1,1.2504778E1,1.47572E1,6E0,8.960773E0,1E0,9.014236E0,9.70072E0,9.676036E0,1E0,9.676036E0,1.2E1,1.7E1,1.17004E1,1.2234733E1,1.008576E1,1E0,1.4513379E1,1E0,7.672063E0,7.7481422E0,4E0,9.0656805E0,8.611554E0,2.3E1,-1.2536788E0,2.3E1,1.6E1,1.7E1,1E0,-7.8581274E-1,-6.7766595E-1,2.3937578E-1,1.2335696E0,1E0,1.1E1,1E0,1.0214864E1,1.3012017E1,1.0473402E1,1E0,2.2E1,1E0,1E0,1.2042181E1,-9.222353E-1,1.2815824E1,1.3869858E1,-5.365567E-1,1.4859623E1,1.13655E0,6.638177E-2,-2.3759095E-1,2.1383865E-3,1.8615353E-1,-3.836544E-1,-1.1165208E-1,1.9856463E-1,-4.7544774E-2,1.6856538E-1,1.253494E0,2.2070827E-1,-2.2381884E-1,3.9443576E-1,-4.3033713E-1,-3.416022E-2,2.9840997E-1,2.7309975E-1,-5.3309757E-2,9.8199084E-2,5.245982E-1,6.0584545E-1,-1.3325901E-2,-2.0565483E-1,-9.3137985E-1,-9.22354E-2,3.9597407E-1,9.3596175E-2,-9.426769E-3,-1.6510007E-1,4.8502546E-2,-4.2190827E-2,1.3496009E-1,-4.450701E-1,-1.6215281E-1,7.897974E-1,-7.01376E-1,1.6518058E-1,-1.4892825E-2,-2.449753E-1,-5.779797E-1,1.5011053E-1,-2.9851726E-1,-4.5935056E-1,3.289467E-1,3.1866882E-2,7.870008E-1,8.312874E-2,-4.1707423E-2],"split_indices":[1,1,2,2,2,2,1,1,1,2,1,1,1,1,1,2,1,0,1,1,1,0,1,2,2,1,1,1,0,1,0,1,1,2,1,1,2,0,2,2,2,0,0,0,0,0,0,2,0,1,1,1,0,2,0,0,1,0,1,1,0,1,0,0,0,0,0,0,0,0,0,0,0,0,0,0,0,0,0,0,0,0,0,0,0,0,0,0,0,0,0,0,0,0,0,0,0,0,0,0,0,0,0,0,0,0,0,0,0,0,0],"split_type":[0,0,0,0,0,0,0,0,0,0,0,0,0,0,0,0,0,0,0,0,0,0,0,0,0,0,0,0,0,0,0,0,0,0,0,0,0,0,0,0,0,0,0,0,0,0,0,0,0,0,0,0,0,0,0,0,0,0,0,0,0,0,0,0,0,0,0,0,0,0,0,0,0,0,0,0,0,0,0,0,0,0,0,0,0,0,0,0,0,0,0,0,0,0,0,0,0,0,0,0,0,0,0,0,0,0,0,0,0,0,0],"sum_hessian":[3.328E3,1.202E3,2.126E3,9.31E2,2.71E2,2.043E3,8.3E1,8.52E2,7.9E1,2.59E2,1.2E1,1.703E3,3.4E2,5.8E1,2.5E1,4.27E2,4.25E2,5.9E1,2E1,2.45E2,1.4E1,2E0,1E1,7.7E1,1.626E3,1.64E2,1.76E2,4.8E1,1E1,2.2E1,3E0,1.16E2,3.11E2,1.42E2,2.83E2,2.4E1,3.5E1,2E0,1.8E1,1.55E2,9E1,5E0,9E0,1E0,1E0,1E0,9E0,5.1E1,2.6E1,1.451E3,1.75E2,1.37E2,2.7E1,1E1,1.66E2,1.2E1,3.6E1,6E0,4E0,1.9E1,3E0,2E0,1E0,4.7E1,6.9E1,1.87E2,1.24E2,2.6E1,1.16E2,5.3E1,2.3E2,1.8E1,6E0,1.7E1,1.8E1,1.1E1,7E0,1.08E2,4.7E1,6.8E1,2.2E1,2E0,3E0,5E0,4E0,4.4E1,7E0,1E1,1.6E1,1.58E2,1.293E3,1.28E2,4.7E1,7.4E1,6.3E1,1.4E1,1.3E1,8E0,2E0,8E1,8.6E1,5E0,7E0,2.3E1,1.3E1,3E0,1E0,1.6E1,3E0,1E0,1E0],"tree_param":{"num_deleted":"0","num_feature":"3","num_nodes":"111","size_leaf_vector":"1"}},{"base_weights":[-3.2714638E-4,5.081306E-3,-4.5670894E-1,-1.4206433E-2,9.9371664E-2,-8.015589E-1,-9.852939E-3,3.1639222E-2,-1.4947033E-1,-3.4062827E-1,1.4136897E-1,-2.7526012E-1,-1.302834E0,6.377344E-1,-3.079815E-1,-5.9339415E-2,8.573296E-2,6.190617E-2,-2.8403816E-1,-2.06668E-2,-3.9763618E-1,5.894072E-1,9.577937E-2,-7.009786E-1,1.2896429E-1,-9.161926E-1,-8.2232237E-1,3.7126324E-1,2.7026367E-1,-4.6960258E-1,3.8728967E-1,1.6620731E-1,-1.7648755E-1,5.4107074E-2,5.8645785E-1,-6.993523E-2,4.186554E-1,-1.5181259E0,-1.9606216E-1,-5.7606333E-1,1.3949486E0,3.5040918E-1,2.1641588E0,3.4350753E-1,1.4341996E-2,-3.888632E-1,-7.930994E-2,1.0004267E0,-4.1970596E-1,-1.0330515E0,-2.4796581E-1,1.1282692E-1,2.2304919E-2,-3.0620587E-1,-1.3536048E-1,-3.5451222E-2,2.097316E-1,-8.322082E-3,2.218964E-1,3.0893477E-2,-1.4682147E-1,2.067093E-2,-1.6463502E-1,9.585984E-1,9.515787E-2,5.7357065E-2,-3.1331456E-1,3.570536E-1,-3.5069425E-2,-6.960042E-1,-1.6515674E-1,1.4368464E-1,-9.190184E-2,-3.320393E-1,3.643819E-2,1.4880148E-1,7.1234405E-1,2.0177765E-1,-5.084363E-1,1.2702469E0,-3.951672E-1,2.4561933E-3,2.0187157E-1,-3.3301827E-2,9.272155E-2,-9.698639E-2,9.7893625E-2,8.0076315E-2,3.7011567E-1,-6.9362216E-2,-1.7605506E-1,-1.3369484E-1,-3.5366473E-1,-2.2581672E-2,-1.1490698E-1,-2.1455441E-1,5.313301E-2],"categories":[],"categories_nodes":[],"categories_segments":[],"categories_sizes":[],"default_left":[0,0,0,0,0,0,0,0,0,0,0,0,0,0,0,0,0,0,0,0,0,0,0,0,0,0,0,0,0,0,0,0,0,0,0,0,0,0,0,0,0,0,0,0,0,0,0,0,0,0,0,0,0,0,0,0,0,0,0,0,0,0,0,0,0,0,0,0,0,0,0,0,0,0,0,0,0,0,0,0,0,0,0,0,0,0,0,0,0,0,0,0,0,0,0,0,0],"id":6,"left_children":[1,3,5,7,9,11,13,15,17,19,21,23,25,27,29,31,33,35,37,39,-1,41,43,45,47,-1,49,-1,51,53,55,57,59,61,63,65,67,69,71,73,75,77,79,81,83,-1,85,87,89,91,93,-1,-1,-1,95,-1,-1,-1,-1,-1,-1,-1,-1,-1,-1,-1,-1,-1,-1,-1,-1,-1,-1,-1,-1,-1,-1,-1,-1,-1,-1,-1,-1,-1,-1,-1,-1,-1,-1,-1,-1,-1,-1,-1,-1,-1,-1],"loss_changes":[8.219355E0,5.986582E0,6.001935E0,1.6952776E1,1.037781E1,5.4454317E0,3.6715674E0,1.0054535E1,1.970116E1,1.5412811E1,1.0381173E1,2.1554308E0,6.744528E0,9.880116E-1,1.6426888E0,2.0163185E1,2.0254017E1,1.2728544E1,4.5627502E1,3.0680239E1,0E0,1.6930698E1,9.376137E0,2.1174202E0,3.7669034E0,0E0,9.54175E-1,0E0,7.570186E-2,1.8879883E0,5.554451E-1,2.9048601E1,4.3950146E1,1.0795791E1,5.237474E1,5.0581333E1,3.0302143E1,2.044825E1,2.9624317E1,1.0500029E1,8.508226E0,2.8814865E1,4.8816048E1,1.2696664E1,1.3001589E1,0E0,5.013442E-1,1.8405795E-1,2.1848142E-2,7.426214E-2,6.446318E-2,0E0,0E0,0E0,1.5760812E0,0E0,0E0,0E0,0E0,0E0,0E0,0E0,0E0,0E0,0E0,0E0,0E0,0E0,0E0,0E0,0E0,0E0,0E0,0E0,0E0,0E0,0E0,0E0,0E0,0E0,0E0,0E0,0E0,0E0,0E0,0E0,0E0,0E0,0E0,0E0,0E0,0E0,0E0,0E0,0E0,0E0,0E0],"parents":[2147483647,0,0,1,1,2,2,3,3,4,4,5,5,6,6,7,7,8,8,9,9,10,10,11,11,12,12,13,13,14,14,15,15,16,16,17,17,18,18,19,19,21,21,22,22,23,23,24,24,26,26,28,28,29,29,30,30,31,31,32,32,33,33,34,34,35,35,36,36,37,37,38,38,39,39,40,40,41,41,42,42,43,43,44,44,46,46,47,47,48,48,49,49,50,50,54,54],"right_children":[2,4,6,8,10,12,14,16,18,20,22,24,26,28,30,32,34,36,38,40,-1,42,44,46,48,-1,50,-1,52,54,56,58,60,62,64,66,68,70,72,74,76,78,80,82,84,-1,86,88,90,92,94,-1,-1,-1,96,-1,-1,-1,-1,-1,-1,-1,-1,-1,-1,-1,-1,-1,-1,-1,-1,-1,-1,-1,-1,-1,-1,-1,-1,-1,-1,-1,-1,-1,-1,-1,-1,-1,-1,-1,-1,-1,-1,-1,-1,-1,-1],"split_conditions":[1.4859623E1,1.3003409E1,1.5E1,1.1782786E1,2E0,8E0,1.9E1,9E0,9E0,1.4471217E1,4E0,1.6123222E1,9E0,1.6E1,2.2E1,3E0,1.1563238E1,1.2550326E1,1E1,1.3683821E1,-3.9763618E-1,1.4513379E1,1.32046175E1,4E0,4E0,-9.161926E-1,1E0,3.7126324E-1,1.6123222E1,1.6123222E1,1E0,1.0214864E1,9.70072E0,1.1423251E1,1.1E1,1.2408631E1,4E0,1.2408631E1,1.2E1,1E0,1E0,1.4471217E1,1.47572E1,1E0,1.4479796E1,-3.888632E-1,5E0,1E0,1E0,1.2E1,1.6123222E1,1.1282692E-1,2.2304919E-2,-3.0620587E-1,1E0,-3.5451222E-2,2.097316E-1,-8.322082E-3,2.218964E-1,3.0893477E-2,-1.4682147E-1,2.067093E-2,-1.6463502E-1,9.585984E-1,9.515787E-2,5.7357065E-2,-3.1331456E-1,3.570536E-1,-3.5069425E-2,-6.960042E-1,-1.6515674E-1,1.4368464E-1,-9.190184E-2,-3.320393E-1,3.643819E-2,1.4880148E-1,7.1234405E-1,2.0177765E-1,-5.084363E-1,1.2702469E0,-3.951672E-1,2.4561933E-3,2.0187157E-1,-3.3301827E-2,9.272155E-2,-9.698639E-2,9.7893625E-2,8.0076315E-2,3.7011567E-1,-6.9362216E-2,-1.7605506E-1,-1.3369484E-1,-3.5366473E-1,-2.2581672E-2,-1.1490698E-1,-2.1455441E-1,5.313301E-2],"split_indices":[1,1,2,1,2,2,2,2,2,1,2,1,2,2,2,2,1,1,2,1,0,1,1,2,2,0,0,0,1,1,0,1,1,1,2,1,2,1,2,0,0,1,1,0,1,0,2,0,0,2,1,0,0,0,0,0,0,0,0,0,0,0,0,0,0,0,0,0,0,0,0,0,0,0,0,0,0,0,0,0,0,0,0,0,0,0,0,0,0,0,0,0,0,0,0,0,0],"split_type":[0,0,0,0,0,0,0,0,0,0,0,0,0,0,0,0,0,0,0,0,0,0,0,0,0,0,0,0,0,0,0,0,0,0,0,0,0,0,0,0,0,0,0,0,0,0,0,0,0,0,0,0,0,0,0,0,0,0,0,0,0,0,0,0,0,0,0,0,0,0,0,0,0,0,0,0,0,0,0,0,0,0,0,0,0,0,0,0,0,0,0,0,0,0,0,0,0],"sum_hessian":[3.328E3,3.29E3,3.8E1,2.732E3,5.58E2,2.1E1,1.7E1,2.041E3,6.91E2,4.8E1,5.1E2,1.1E1,1E1,5E0,1.2E1,7.61E2,1.28E3,2.69E2,4.22E2,3.7E1,1.1E1,4.6E1,4.64E2,5E0,6E0,1E0,9E0,1E0,4E0,1E1,2E0,2.6E2,5.01E2,1.205E3,7.5E1,1.97E2,7.2E1,2.7E1,3.95E2,2.7E1,1E1,4.1E1,5E0,1.14E2,3.5E2,2E0,3E0,2E0,4E0,6E0,3E0,2E0,2E0,3E0,7E0,1E0,1E0,1.95E2,6.5E1,2.65E2,2.36E2,1.177E3,2.8E1,6E0,6.9E1,1.56E2,4.1E1,2.9E1,4.3E1,1.4E1,1.3E1,5.5E1,3.4E2,1.5E1,1.2E1,6E0,4E0,3.6E1,5E0,3E0,2E0,5.7E1,5.7E1,2.46E2,1.04E2,2E0,1E0,1E0,1E0,3E0,1E0,2E0,4E0,2E0,1E0,2E0,5E0],"tree_param":{"num_deleted":"0","num_feature":"3","num_nodes":"97","size_leaf_vector":"1"}},{"base_weights":[-3.035529E-4,4.018994E-2,-3.8025275E-2,-1.709686E-1,9.7246096E-2,-5.5952024E-2,3.126393E-1,8.7153E-1,-2.0499426E-1,1.22853175E-1,-5.147117E-1,-3.343112E-2,-5.8452624E-1,-2.4288513E-1,7.7683085E-1,1.1736472E0,1.762516E-1,-1.0586996E0,-1.4687629E-1,9.37249E-2,8.290818E-1,-1.0975096E0,-2.8645164E-1,-6.923715E-2,2.7505392E-1,5.4138166E-1,-7.6486164E-1,4.714651E-1,-1.4172765E0,3.4807465E0,3.621888E-1,-2.4427672E-1,7.1707696E-1,2.3607446E-2,-1.1825666E0,1.1730136E0,-2.0818593E-1,1.1670092E-1,-6.319849E-1,1.8008487E0,2.3808543E-1,-3.457278E-1,-6.1267924E-1,4.906195E-2,-7.037956E-1,-2.9231185E-2,-4.1593802E-1,7.9588693E-1,-2.3769538E-3,-1.4188498E0,2.2038493E-1,-1.4157326E0,7.9316175E-1,-5.492169E-1,-4.9198627E-1,1.53753E0,3.840809E-2,-7.1222913E-1,8.081756E-1,5.154691E-1,-1.3900366E-1,-6.096496E-1,-2.4615881E-1,-7.729369E-2,3.9086497E-1,-2.4476087E-2,-1.4010316E-1,-3.371392E-2,6.116821E-2,-6.3371885E-1,1.2183386E-1,2.94195E-1,1.6724879E0,-1.8518163E-1,2.6704097E-1,-3.0922735E-1,2.3047473E-1,-1.6385815E-1,6.5465105E-1,-4.8707333E-1,8.825582E-2,-1.2931584E-2,1.2618618E-1,2.7514553E-1,-1.9044556E-1,1.7164184E-2,3.325178E-1,-7.2929645E-1,1.066646E-1,6.995636E-2,-4.8601973E-1,7.017937E-1,-3.750455E-1,1.8425818E-1,-6.8913186E-1,4.6193668E-1,1.4489691E-1,3.8886243E-1,-5.1304066E-1,3.676632E-1,4.2647135E-2],"categories":[],"categories_nodes":[],"categories_segments":[],"categories_sizes":[],"default_left":[0,0,0,0,0,0,0,0,0,0,0,0,0,0,0,0,0,0,0,0,0,0,0,0,0,0,0,0,0,0,0,0,0,0,0,0,0,0,0,0,0,0,0,0,0,0,0,0,0,0,0,0,0,0,0,0,0,0,0,0,0,0,0,0,0,0,0,0,0,0,0,0,0,0,0,0,0,0,0,0,0,0,0,0,0,0,0,0,0,0,0,0,0,0,0,0,0,0,0,0,0],"id":7,"left_children":[1,3,5,7,9,11,13,15,17,19,21,23,25,27,29,-1,31,33,35,37,39,41,43,45,47,-1,49,51,53,55,57,-1,59,-1,61,63,65,67,69,71,73,75,-1,77,79,81,83,85,87,89,91,93,95,-1,97,-1,-1,-1,99,-1,-1,-1,-1,-1,-1,-1,-1,-1,-1,-1,-1,-1,-1,-1,-1,-1,-1,-1,-1,-1,-1,-1,-1,-1,-1,-1,-1,-1,-1,-1,-1,-1,-1,-1,-1,-1,-1,-1,-1,-1,-1],"loss_changes":[5.0865235E0,1.9365545E1,1.0855032E1,1.2309978E1,1.9886353E1,1.951487E1,2.184974E1,2.256538E1,1.631689E1,2.4916328E1,6.4701204E0,1.7415903E1,3.0246899E1,3.3386337E1,5.0312546E1,0E0,5.940799E0,3.051649E0,2.5491861E1,1.9548893E1,2.7138165E1,9.237421E0,5.355463E0,1.9572428E1,2.3699097E1,0E0,4.090609E1,1.6300533E1,4.837675E0,3.242218E1,5.1952934E1,0E0,9.068621E0,0E0,4.176689E0,2.9368687E0,9.75921E0,2.2653742E1,5.6183083E1,5.025229E1,1.7839298E1,7.6598463E0,0E0,2.9126274E1,1.6082373E1,7.9258404E0,4.318318E1,1.3094437E1,9.4744644E1,1.300959E1,8.3939445E1,8.567363E0,4.351122E0,0E0,1.5286417E1,0E0,0E0,0E0,9.832884E0,0E0,0E0,0E0,0E0,0E0,0E0,0E0,0E0,0E0,0E0,0E0,0E0,0E0,0E0,0E0,0E0,0E0,0E0,0E0,0E0,0E0,0E0,0E0,0E0,0E0,0E0,0E0,0E0,0E0,0E0,0E0,0E0,0E0,0E0,0E0,0E0,0E0,0E0,0E0,0E0,0E0,0E0],"parents":[2147483647,0,0,1,1,2,2,3,3,4,4,5,5,6,6,7,7,8,8,9,9,10,10,11,11,12,12,13,13,14,14,16,16,17,17,18,18,19,19,20,20,21,21,22,22,23,23,24,24,26,26,27,27,28,28,29,29,30,30,32,32,34,34,35,35,36,36,37,37,38,38,39,39,40,40,41,41,43,43,44,44,45,45,46,46,47,47,48,48,49,49,50,50,51,51,52,52,54,54,58,58],"right_children":[2,4,6,8,10,12,14,16,18,20,22,24,26,28,30,-1,32,34,36,38,40,42,44,46,48,-1,50,52,54,56,58,-1,60,-1,62,64,66,68,70,72,74,76,-1,78,80,82,84,86,88,90,92,94,96,-1,98,-1,-1,-1,100,-1,-1,-1,-1,-1,-1,-1,-1,-1,-1,-1,-1,-1,-1,-1,-1,-1,-1,-1,-1,-1,-1,-1,-1,-1,-1,-1,-1,-1,-1,-1,-1,-1,-1,-1,-1,-1,-1,-1,-1,-1,-1],"split_conditions":[1E0,5E0,1.4479796E1,7.1638784E0,1.4513379E1,1.3726819E1,1E1,1E0,7.7481422E0,1.3683821E1,1.47572E1,1.3012017E1,2E0,7E0,1.1E1,1.1736472E0,6.6440353E0,7.4048233E0,8.320593E0,1.3317656E1,1E1,1.7E1,1.5E1,1.2408631E1,9E0,5.4138166E-1,1.3E1,2E0,1.47572E1,1.47572E1,1.2E1,-2.4427672E-1,3E0,2.3607446E-2,1E0,7.797912E0,1.2408631E1,9.2672E0,1.3543484E1,8E0,1.6E1,1.5E1,-6.1267924E-1,1.4E1,2E1,1.238155E1,3E0,3E0,1.1E1,3E0,1.6E1,1E0,4E0,-5.492169E-1,1.4859623E1,1.53753E0,3.840809E-2,-7.1222913E-1,1.4859623E1,5.154691E-1,-1.3900366E-1,-6.096496E-1,-2.4615881E-1,-7.729369E-2,3.9086497E-1,-2.4476087E-2,-1.4010316E-1,-3.371392E-2,6.116821E-2,-6.3371885E-1,1.2183386E-1,2.94195E-1,1.6724879E0,-1.8518163E-1,2.6704097E-1,-3.0922735E-1,2.3047473E-1,-1.6385815E-1,6.5465105E-1,-4.8707333E-1,8.825582E-2,-1.2931584E-2,1.2618618E-1,2.7514553E-1,-1.9044556E-1,1.7164184E-2,3.325178E-1,-7.2929645E-1,1.066646E-1,6.995636E-2,-4.8601973E-1,7.017937E-1,-3.750455E-1,1.8425818E-1,-6.8913186E-1,4.6193668E-1,1.4489691E-1,3.8886243E-1,-5.1304066E-1,3.676632E-1,4.2647135E-2],"split_indices":[0,2,1,1,1,1,2,2,1,1,1,1,2,2,2,0,1,1,1,1,2,2,2,1,2,0,2,2,1,1,2,0,2,0,2,1,1,1,1,2,2,2,0,2,2,1,2,2,2,2,2,2,2,0,1,0,0,0,1,0,0,0,0,0,0,0,0,0,0,0,0,0,0,0,0,0,0,0,0,0,0,0,0,0,0,0,0,0,0,0,0,0,0,0,0,0,0,0,0,0,0],"split_type":[0,0,0,0,0,0,0,0,0,0,0,0,0,0,0,0,0,0,0,0,0,0,0,0,0,0,0,0,0,0,0,0,0,0,0,0,0,0,0,0,0,0,0,0,0,0,0,0,0,0,0,0,0,0,0,0,0,0,0,0,0,0,0,0,0,0,0,0,0,0,0,0,0,0,0,0,0,0,0,0,0,0,0,0,0,0,0,0,0,0,0,0,0,0,0,0,0,0,0,0,0],"sum_hessian":[3.328E3,1.605E3,1.723E3,3.41E2,1.264E3,1.64E3,8.3E1,1E1,3.31E2,1.214E3,5E1,1.574E3,6.6E1,3.8E1,4.5E1,1E0,9E0,2E1,3.11E2,1.167E3,4.7E1,1.3E1,3.7E1,1.411E3,1.63E2,4E0,6.2E1,2.4E1,1.4E1,5E0,4E1,3E0,6E0,2E0,1.8E1,1.3E1,2.98E2,1.132E3,3.5E1,1.7E1,3E1,8E0,5E0,2.1E1,1.6E1,1.266E3,1.45E2,5.6E1,1.07E2,3.7E1,2.5E1,3E0,2.1E1,9E0,5E0,3E0,2E0,5E0,3.5E1,3E0,3E0,4E0,1.4E1,1E0,1.2E1,2.01E2,9.7E1,3.12E2,8.2E2,1.4E1,2.1E1,1.5E1,2E0,1.3E1,1.7E1,5E0,3E0,1.7E1,4E0,8E0,8E0,1.229E3,3.7E1,2E1,1.25E2,1.7E1,3.9E1,1.3E1,9.4E1,4E0,3.3E1,1E1,1.5E1,1E0,2E0,5E0,1.6E1,2E0,3E0,2.1E1,1.4E1],"tree_param":{"num_deleted":"0","num_feature":"3","num_nodes":"101","size_leaf_vector":"1"}},{"base_weights":[5.8865827E-4,4.6517006E-3,-3.4228468E-1,-1.04622886E-1,1.5486392E-2,-5.9365E-1,-1.6044617E-2,-7.7184536E-2,-8.110033E-1,3.5791838E-1,3.2279865E-4,-8.996367E-1,-1.3650227E-1,5.8356124E-1,-2.915516E-1,-1.6989073E-1,3.450433E-1,-4.8266438E-1,-1.1084772E0,2.6218936E-1,9.708115E-1,-1.4413764E-1,1.5940018E-2,-1.2853177E0,-2.3545599E-1,1.2776142E-1,-3.7723133E-1,2.5561655E-1,9.314728E-3,-4.2244166E-1,2.8556252E-1,-9.21611E-2,-2.3736653E0,-2.2050121E-1,1.0140328E0,-2.4933615E-1,2.4121085E-1,-5.2010727E-1,-5.1929355E-1,3.4133005E-1,-1.6896248E0,-3.3431178E-1,1.3162798E-1,2.3545387E-1,-1.0131764E-2,-6.8143207E-1,-6.193949E-1,1.16008766E-1,-4.3722552E-1,2.229254E-1,-1.5420015E-1,-8.344188E-1,-1.6364789E-1,-4.3371677E-2,1.7187482E-1,6.208057E-3,-9.864763E-2,-2.6379183E-1,-9.283259E-1,-2.2558963E-1,1.7852107E-1,6.2038225E-1,1.3752815E-1,-3.1245595E-1,1.5661955E-1,-4.6251964E-2,1.4605309E-1,-7.593525E-1,-8.54599E-2,-6.764155E-2,-3.6500764E-1,6.5874815E-1,-1.9304872E-2,9.277484E-2,-1.2036001E-1,3.79619E-2,-9.9923005E-3,-2.699056E-1,6.1475087E-2,-1.9201805E-1,-2.6594736E-2,-1.2634765E-1,-1.1854172E-2,-3.354913E-1,-1.1010666E-1,7.177821E-2,-1.3597356E-1],"categories":[],"categories_nodes":[],"categories_segments":[],"categories_sizes":[],"default_left":[0,0,0,0,0,0,0,0,0,0,0,0,0,0,0,0,0,0,0,0,0,0,0,0,0,0,0,0,0,0,0,0,0,0,0,0,0,0,0,0,0,0,0,0,0,0,0,0,0,0,0,0,0,0,0,0,0,0,0,0,0,0,0,0,0,0,0,0,0,0,0,0,0,0,0,0,0,0,0,0,0,0,0,0,0,0,0],"id":8,"left_children":[1,3,5,7,9,11,13,15,17,19,21,23,25,27,29,31,33,35,37,39,-1,41,43,45,47,49,-1,-1,-1,51,53,55,57,59,61,-1,-1,63,-1,65,67,69,71,73,75,77,-1,-1,79,-1,81,83,85,-1,-1,-1,-1,-1,-1,-1,-1,-1,-1,-1,-1,-1,-1,-1,-1,-1,-1,-1,-1,-1,-1,-1,-1,-1,-1,-1,-1,-1,-1,-1,-1,-1,-1],"loss_changes":[4.6392517E0,3.8980207E0,3.1886873E0,5.6938334E0,1.5551421E1,2.9545827E0,3.143659E0,1.12927E1,5.3937197E-1,3.4142532E1,6.474964E0,3.0274677E0,3.1228774E0,8.6362123E-1,1.102634E0,4.0207706E1,1.989745E1,3.8067613E0,9.310107E-1,1.973074E1,0E0,1.4728182E1,1.482526E1,2.358101E0,9.222612E-1,1.6760612E0,0E0,0E0,0E0,1.0362374E0,4.5362997E-1,6.123088E0,5.895584E0,1.3017436E1,1.3105371E1,0E0,0E0,2.7173483E0,0E0,8.727353E0,5.189828E0,1.566802E1,4.6663017E1,1.30441885E1,7.3401074E0,1.3450515E0,0E0,0E0,2.96776E-1,0E0,1.9767374E-1,1.20306015E-1,1.0418935E0,0E0,0E0,0E0,0E0,0E0,0E0,0E0,0E0,0E0,0E0,0E0,0E0,0E0,0E0,0E0,0E0,0E0,0E0,0E0,0E0,0E0,0E0,0E0,0E0,0E0,0E0,0E0,0E0,0E0,0E0,0E0,0E0,0E0,0E0],"parents":[2147483647,0,0,1,1,2,2,3,3,4,4,5,5,6,6,7,7,8,8,9,9,10,10,11,11,12,12,13,13,14,14,15,15,16,16,17,17,18,18,19,19,21,21,22,22,23,23,24,24,25,25,29,29,30,30,31,31,32,32,33,33,34,34,37,37,39,39,40,40,41,41,42,42,43,43,44,44,45,45,48,48,50,50,51,51,52,52],"right_children":[2,4,6,8,10,12,14,16,18,20,22,24,26,28,30,32,34,36,38,40,-1,42,44,46,48,50,-1,-1,-1,52,54,56,58,60,62,-1,-1,64,-1,66,68,70,72,74,76,78,-1,-1,80,-1,82,84,86,-1,-1,-1,-1,-1,-1,-1,-1,-1,-1,-1,-1,-1,-1,-1,-1,-1,-1,-1,-1,-1,-1,-1,-1,-1,-1,-1,-1,-1,-1,-1,-1,-1,-1],"split_conditions":[1.4859623E1,2E0,1.5E1,1.4479796E1,3E0,1.6123222E1,1.9E1,1.2550326E1,1.47572E1,1.4513379E1,5E0,1.1E1,1.4E1,1.6123222E1,2.2E1,1.2504778E1,1E0,1.4513379E1,1E0,1.4471217E1,9.708115E-1,1.17004E1,7E0,7E0,1.2E1,4E0,-3.7723133E-1,2.5561655E-1,9.314728E-3,1.6123222E1,1E0,1.0995807E1,1E0,1.3543484E1,1.296526E1,-2.4933615E-1,2.4121085E-1,1E0,-5.1929355E-1,9.000648E0,1E0,1.1187315E1,1.2045231E1,1.3869858E1,8.611554E0,5E0,-6.193949E-1,1.16008766E-1,1E0,2.229254E-1,5E0,2E1,2E1,-4.3371677E-2,1.7187482E-1,6.208057E-3,-9.864763E-2,-2.6379183E-1,-9.283259E-1,-2.2558963E-1,1.7852107E-1,6.2038225E-1,1.3752815E-1,-3.1245595E-1,1.5661955E-1,-4.6251964E-2,1.4605309E-1,-7.593525E-1,-8.54599E-2,-6.764155E-2,-3.6500764E-1,6.5874815E-1,-1.9304872E-2,9.277484E-2,-1.2036001E-1,3.79619E-2,-9.9923005E-3,-2.699056E-1,6.1475087E-2,-1.9201805E-1,-2.6594736E-2,-1.2634765E-1,-1.1854172E-2,-3.354913E-1,-1.1010666E-1,7.177821E-2,-1.3597356E-1],"split_indices":[1,2,2,1,2,1,2,1,1,1,2,2,2,1,2,1,0,1,2,1,0,1,2,2,2,2,0,0,0,1,0,1,2,1,1,0,0,0,0,1,0,1,1,1,1,2,0,0,0,0,2,2,2,0,0,0,0,0,0,0,0,0,0,0,0,0,0,0,0,0,0,0,0,0,0,0,0,0,0,0,0,0,0,0,0,0,0],"split_type":[0,0,0,0,0,0,0,0,0,0,0,0,0,0,0,0,0,0,0,0,0,0,0,0,0,0,0,0,0,0,0,0,0,0,0,0,0,0,0,0,0,0,0,0,0,0,0,0,0,0,0,0,0,0,0,0,0,0,0,0,0,0,0,0,0,0,0,0,0,0,0,0,0,0,0,0,0,0,0,0,0,0,0,0,0,0,0],"sum_hessian":[3.328E3,3.29E3,3.8E1,2.96E2,2.994E3,2.1E1,1.7E1,2.86E2,1E1,1.26E2,2.868E3,1.2E1,9E0,5E0,1.2E1,2.35E2,5.1E1,6E0,4E0,1.23E2,3E0,2.79E2,2.589E3,7E0,5E0,8E0,1E0,3E0,2E0,1E1,2E0,2.28E2,7E0,2.8E1,2.3E1,5E0,1E0,3E0,1E0,1.19E2,4E0,1.65E2,1.14E2,2.74E2,2.315E3,5E0,2E0,1E0,4E0,2E0,6E0,3E0,7E0,1E0,1E0,1.55E2,7.3E1,3E0,4E0,1.7E1,1.1E1,7E0,1.6E1,2E0,1E0,2.7E1,9.2E1,2E0,2E0,1.48E2,1.7E1,9E0,1.05E2,2.46E2,2.8E1,3.35E2,1.98E3,4E0,1E0,2E0,2E0,1E0,5E0,1E0,2E0,3E0,4E0],"tree_param":{"num_deleted":"0","num_feature":"3","num_nodes":"87","size_leaf_vector":"1"}},{"base_weights":[-2.3764653E-4,3.38666E-2,-3.2007474E-2,-1.1258938E-1,8.269767E-2,-4.660506E-2,2.5354788E-1,1.4927325E-1,-5.4885954E-1,1.2693517E0,6.535789E-2,-4.0442247E-2,-1.2995344E0,1.5189365E-1,1.5497373E0,-2.8557053E-1,3.0194926E-1,-6.968823E-1,1.223811E0,-1.1224172E0,7.930023E-2,2.5541174E-1,-5.5038087E-2,-3.446506E-1,-8.328372E-1,-1.3213867E-1,4.1836601E-1,5.836024E-1,2.321338E0,-1.2488025E-1,-1.2894E0,2.3447475E-1,1.2664132E0,1.6890833E-1,-1.1949074E0,8.2727575E-1,-2.6568332E-1,-2.1195042E0,9.720209E-1,7.026822E-1,4.259274E-2,-4.643972E-1,8.353629E-1,-4.151994E-1,-3.832254E-2,-3.5189253E-1,2.6239967E-1,3.8593465E-1,-9.8678493E-1,2.7075064E0,2.5221322E-2,7.751656E-1,-2.8333607E-1,8.985086E-1,1.4609356E-1,2.2441486E-1,-9.6697494E-2,-4.9889845E-1,2.549037E-1,1.5451863E-1,-6.24311E-2,6.5468013E-1,-3.9455416E-3,-1.7550844E-1,2.8360376E-1,-7.210047E-1,-2.2121082E-1,-8.442922E-1,7.048085E-1,-9.329001E-1,-1.833191E-1,2.835701E-1,-1.4117932E0,-1.4206508E-1,1.9074405E-2,-5.147465E-2,-6.5609133E-1,3.2852763E-1,-3.9375715E-2,6.134021E-2,-3.8308886E-1,-8.333481E-3,-1.8259108E-1,-2.8926852E-1,1.8416291E-1,-3.9823028E-1,-7.6371625E-2,1.1938343E0,3.2724954E-2,-5.3167385E-1,1.116914E-1],"categories":[],"categories_nodes":[],"categories_segments":[],"categories_sizes":[],"default_left":[0,0,0,0,0,0,0,0,0,0,0,0,0,0,0,0,0,0,0,0,0,0,0,0,0,0,0,0,0,0,0,0,0,0,0,0,0,0,0,0,0,0,0,0,0,0,0,0,0,0,0,0,0,0,0,0,0,0,0,0,0,0,0,0,0,0,0,0,0,0,0,0,0,0,0,0,0,0,0,0,0,0,0,0,0,0,0,0,0,0,0],"id":9,"left_children":[1,3,5,7,9,11,13,15,17,-1,19,21,23,25,27,29,31,33,35,37,39,41,43,45,-1,47,49,51,53,55,57,59,61,63,65,-1,67,69,-1,71,73,75,77,79,81,-1,-1,83,85,87,89,-1,-1,-1,-1,-1,-1,-1,-1,-1,-1,-1,-1,-1,-1,-1,-1,-1,-1,-1,-1,-1,-1,-1,-1,-1,-1,-1,-1,-1,-1,-1,-1,-1,-1,-1,-1,-1,-1,-1,-1],"loss_changes":[3.608009E0,1.1494784E1,7.1981716E0,4.600756E1,8.6403465E1,1.2618544E1,1.0832708E1,1.681656E1,4.0474575E1,0E0,1.9977999E1,7.070056E0,1.0322978E1,6.034537E0,3.118084E0,1.0485151E1,1.1872412E1,6.0567802E1,2.814723E1,6.776425E1,2.7154825E1,3.25319E1,9.363707E0,7.085897E0,0E0,1.7648842E1,3.6830215E1,1.4666536E1,2.2488575E0,1.0237726E1,8.6053505E0,2.19632E1,1.4091433E1,3.0993048E1,4.743666E1,0E0,5.3265186E1,1.6023014E1,0E0,9.103223E1,1.2195705E1,1.7278597E1,1.0939234E1,3.7107517E1,8.943279E0,0E0,0E0,8.285879E0,3.403489E0,1.9396152E1,2.3119171E1,0E0,0E0,0E0,0E0,0E0,0E0,0E0,0E0,0E0,0E0,0E0,0E0,0E0,0E0,0E0,0E0,0E0,0E0,0E0,0E0,0E0,0E0,0E0,0E0,0E0,0E0,0E0,0E0,0E0,0E0,0E0,0E0,0E0,0E0,0E0,0E0,0E0,0E0,0E0,0E0],"parents":[2147483647,0,0,1,1,2,2,3,3,4,4,5,5,6,6,7,7,8,8,10,10,11,11,12,12,13,13,14,14,15,15,16,16,17,17,18,18,19,19,20,20,21,21,22,22,23,23,25,25,26,26,27,27,28,28,29,29,30,30,31,31,32,32,33,33,34,34,36,36,37,37,39,39,40,40,41,41,42,42,43,43,44,44,47,47,48,48,49,49,50,50],"right_children":[2,4,6,8,10,12,14,16,18,-1,20,22,24,26,28,30,32,34,36,38,40,42,44,46,-1,48,50,52,54,56,58,60,62,64,66,-1,68,70,-1,72,74,76,78,80,82,-1,-1,84,86,88,90,-1,-1,-1,-1,-1,-1,-1,-1,-1,-1,-1,-1,-1,-1,-1,-1,-1,-1,-1,-1,-1,-1,-1,-1,-1,-1,-1,-1,-1,-1,-1,-1,-1,-1,-1,-1,-1,-1,-1,-1],"split_conditions":[1E0,9.2672E0,1.4479796E1,8.647051E0,9.401512E0,1.4471217E1,2.2E1,6E0,2.2E1,1.2693517E0,9.419719E0,1E0,1.5E1,1E1,1.47572E1,5E0,2.3E1,8E0,8.960773E0,1.2E1,9.596279E0,1.0214864E1,2E0,1.2E1,-8.328372E-1,7E0,1.1E1,1.4513379E1,1.4859623E1,7.1638784E0,8.611554E0,1.6E1,7.7481422E0,4E0,1.2E1,8.2727575E-1,9.111454E0,1E1,9.720209E-1,2.3E1,1E0,9.946839E0,1.296526E1,1.0995807E1,1.4097302E1,-3.5189253E-1,2.6239967E-1,2E0,1.47572E1,1.47572E1,1.2E1,7.751656E-1,-2.8333607E-1,8.985086E-1,1.4609356E-1,2.2441486E-1,-9.6697494E-2,-4.9889845E-1,2.549037E-1,1.5451863E-1,-6.24311E-2,6.5468013E-1,-3.9455416E-3,-1.7550844E-1,2.8360376E-1,-7.210047E-1,-2.2121082E-1,-8.442922E-1,7.048085E-1,-9.329001E-1,-1.833191E-1,2.835701E-1,-1.4117932E0,-1.4206508E-1,1.9074405E-2,-5.147465E-2,-6.5609133E-1,3.2852763E-1,-3.9375715E-2,6.134021E-2,-3.8308886E-1,-8.333481E-3,-1.8259108E-1,-2.8926852E-1,1.8416291E-1,-3.9823028E-1,-7.6371625E-2,1.1938343E0,3.2724954E-2,-5.3167385E-1,1.116914E-1],"split_indices":[0,1,1,1,1,1,2,2,2,0,1,2,2,2,1,2,2,2,1,2,1,1,2,2,0,2,2,1,1,1,1,2,1,2,2,0,1,2,0,2,2,1,1,1,1,0,0,2,1,1,2,0,0,0,0,0,0,0,0,0,0,0,0,0,0,0,0,0,0,0,0,0,0,0,0,0,0,0,0,0,0,0,0,0,0,0,0,0,0,0,0],"split_type":[0,0,0,0,0,0,0,0,0,0,0,0,0,0,0,0,0,0,0,0,0,0,0,0,0,0,0,0,0,0,0,0,0,0,0,0,0,0,0,0,0,0,0,0,0,0,0,0,0,0,0,0,0,0,0,0,0,0,0,0,0,0,0,0,0,0,0,0,0,0,0,0,0,0,0,0,0,0,0,0,0,0,0,0,0,0,0,0,0,0,0],"sum_hessian":[3.328E3,1.605E3,1.723E3,4.01E2,1.204E3,1.64E3,8.3E1,2.51E2,1.5E2,4E0,1.2E3,1.633E3,7E0,7.8E1,5E0,6.5E1,1.86E2,1.39E2,1.1E1,1.3E1,1.187E3,7.6E1,1.557E3,5E0,2E0,3.8E1,4E1,3E0,2E0,5.7E1,8E0,1.75E2,1.1E1,5.1E1,8.8E1,5E0,6E0,1.1E1,2E0,6.5E1,1.122E3,3.4E1,4.2E1,6.8E1,1.489E3,3E0,2E0,2.4E1,1.4E1,5E0,3.5E1,1E0,2E0,1E0,1E0,1E1,4.7E1,7E0,1E0,1.07E2,6.8E1,6E0,5E0,2.6E1,2.5E1,2.3E1,6.5E1,3E0,3E0,6E0,5E0,6.3E1,2E0,4.3E1,1.079E3,3E1,4E0,3.3E1,9E0,4E1,2.8E1,1.463E3,2.6E1,3E0,2.1E1,9E0,5E0,3E0,2E0,5E0,3E1],"tree_param":{"num_deleted":"0","num_feature":"3","num_nodes":"91","size_leaf_vector":"1"}},{"base_weights":[-8.682848E-5,3.9469954E-3,-3.4047726E-1,-1.2837686E-2,8.600171E-2,-5.2227426E-1,-9.9365555E-2,1.8624373E-2,-1.05659485E-1,1.108653E-1,-1.3930641E-1,-7.766271E-1,-1.3938808E-1,6.8643E-1,-2.4049187E-1,-4.346993E-2,5.554649E-2,3.327797E-2,-1.9409318E-1,7.951242E-2,9.52976E-1,-3.6874437E-1,6.479687E-1,-1.0905039E0,-2.2868681E-1,8.475961E-2,-3.235076E-1,5.4812912E-2,2.540806E-1,-3.1506333E-1,1.876723E-1,1.3115504E-1,-1.341744E-1,3.317467E-2,4.098211E-1,-5.800992E-2,6.282606E-1,-1.0624267E0,-1.3220572E-1,6.729467E-1,5.922754E-2,1.2878735E0,-1.7533226E-1,1.6449133E-1,-1.3121876E0,-4.329483E-1,1.1764817E0,-6.37695E-1,-1.6326205E0,9.574643E-2,-4.0208608E-1,1.5801679E-1,-1.1676162E-1,4.7689915E-2,-4.183315E-1,-3.972702E-2,1.2417956E-1,1.4656505E-2,3.5304788E-1,-1.9890407E-2,-2.3242775E-1,9.458069E-2,4.0968135E-3,7.0273787E-1,6.32108E-2,2.1928962E-2,-1.710905E-1,6.851287E-1,-1.2202548E-1,-5.9578764E-1,-7.3696576E-2,1.03561796E-1,-6.306599E-2,-4.9117118E-1,5.6156105E-1,5.4357722E-2,-2.4441879E-3,1.2952767E-1,6.246925E-1,4.8551142E-1,-5.731775E-1,-3.3840385E-1,1.6521311E-1,-7.096816E-1,-1.8549192E-1,1.7337914E-1,-2.490452E-1,2.0612949E-1,7.637324E-1,-3.0961666E-1,-5.4750253E-2,-1.372367E-1,-5.9744257E-1,-1.5742902E-1,-4.3614008E-2,-1.1025639E-1,-4.1144374E-3,5.094366E-2,-1.4886475E-2,-2.2683178E-1,-5.9145857E-2],"categories":[],"categories_nodes":[],"categories_segments":[],"categories_sizes":[],"default_left":[0,0,0,0,0,0,0,0,0,0,0,0,0,0,0,0,0,0,0,0,0,0,0,0,0,0,0,0,0,0,0,0,0,0,0,0,0,0,0,0,0,0,0,0,0,0,0,0,0,0,0,0,0,0,0,0,0,0,0,0,0,0,0,0,0,0,0,0,0,0,0,0,0,0,0,0,0,0,0,0,0,0,0,0,0,0,0,0,0,0,0,0,0,0,0,0,0,0,0,0,0],"id":10,"left_children":[1,3,5,7,9,11,13,15,17,19,21,23,25,27,29,31,33,35,37,39,41,43,45,47,49,51,-1,-1,-1,53,55,57,59,61,63,65,67,69,71,73,75,77,79,81,83,85,87,89,91,-1,93,-1,95,97,99,-1,-1,-1,-1,-1,-1,-1,-1,-1,-1,-1,-1,-1,-1,-1,-1,-1,-1,-1,-1,-1,-1,-1,-1,-1,-1,-1,-1,-1,-1,-1,-1,-1,-1,-1,-1,-1,-1,-1,-1,-1,-1,-1,-1,-1,-1],"loss_changes":[4.57231E0,4.5336742E0,1.6576056E0,7.9833255E0,3.1469455E0,2.0342875E0,2.1612165E0,4.684012E0,8.50889E0,1.3231138E1,1.03542595E1,1.9864311E0,2.196082E0,8.780599E-2,5.699899E-1,1.208712E1,1.0139313E1,1.4701418E1,2.259112E1,5.822522E0,7.027424E0,2.2351257E1,7.9359784E0,9.226885E-1,6.982995E-1,8.6308527E-1,0E0,0E0,0E0,5.4440236E-1,2.7208838E-1,2.2403849E1,2.1774809E1,6.6360426E0,2.8753056E1,1.5825406E1,6.2613632E1,2.0632954E1,1.4821548E1,4.7380432E1,3.8800714E0,8.622726E0,1.8654753E1,1.5097709E1,1.0232473E1,2.4873862E0,4.281786E0,8.887124E-1,3.5412788E-1,0E0,8.117002E-2,0E0,1.7583942E-1,5.5961963E-2,6.727246E-1,0E0,0E0,0E0,0E0,0E0,0E0,0E0,0E0,0E0,0E0,0E0,0E0,0E0,0E0,0E0,0E0,0E0,0E0,0E0,0E0,0E0,0E0,0E0,0E0,0E0,0E0,0E0,0E0,0E0,0E0,0E0,0E0,0E0,0E0,0E0,0E0,0E0,0E0,0E0,0E0,0E0,0E0,0E0,0E0,0E0,0E0],"parents":[2147483647,0,0,1,1,2,2,3,3,4,4,5,5,6,6,7,7,8,8,9,9,10,10,11,11,12,12,13,13,14,14,15,15,16,16,17,17,18,18,19,19,20,20,21,21,22,22,23,23,24,24,25,25,29,29,30,30,31,31,32,32,33,33,34,34,35,35,36,36,37,37,38,38,39,39,40,40,41,41,42,42,43,43,44,44,45,45,46,46,47,47,48,48,50,50,52,52,53,53,54,54],"right_children":[2,4,6,8,10,12,14,16,18,20,22,24,26,28,30,32,34,36,38,40,42,44,46,48,50,52,-1,-1,-1,54,56,58,60,62,64,66,68,70,72,74,76,78,80,82,84,86,88,90,92,-1,94,-1,96,98,100,-1,-1,-1,-1,-1,-1,-1,-1,-1,-1,-1,-1,-1,-1,-1,-1,-1,-1,-1,-1,-1,-1,-1,-1,-1,-1,-1,-1,-1,-1,-1,-1,-1,-1,-1,-1,-1,-1,-1,-1,-1,-1,-1,-1,-1,-1],"split_conditions":[1.4859623E1,1.3003409E1,1.5E1,1.1782786E1,2.1E1,1.6123222E1,1.7E1,9E0,9E0,2E1,1.3869858E1,1.1E1,1.4E1,1E0,2.2E1,3E0,1.1563238E1,8E0,1E1,1.3012017E1,1.4235368E1,1.3328174E1,1E0,7E0,1.2E1,4E0,-3.235076E-1,5.4812912E-2,2.540806E-1,1.9E1,1E0,1.1423251E1,1.1277284E1,1E1,1.1E1,6E0,1E0,1E0,1.2E1,6E0,7E0,1.32046175E1,1E0,1.3090454E1,2.2E1,1.4513379E1,1.47572E1,4E0,1E0,9.574643E-2,1E0,1.5801679E-1,5E0,1.6123222E1,1.6123222E1,-3.972702E-2,1.2417956E-1,1.4656505E-2,3.5304788E-1,-1.9890407E-2,-2.3242775E-1,9.458069E-2,4.0968135E-3,7.0273787E-1,6.32108E-2,2.1928962E-2,-1.710905E-1,6.851287E-1,-1.2202548E-1,-5.9578764E-1,-7.3696576E-2,1.03561796E-1,-6.306599E-2,-4.9117118E-1,5.6156105E-1,5.4357722E-2,-2.4441879E-3,1.2952767E-1,6.246925E-1,4.8551142E-1,-5.731775E-1,-3.3840385E-1,1.6521311E-1,-7.096816E-1,-1.8549192E-1,1.7337914E-1,-2.490452E-1,2.0612949E-1,7.637324E-1,-3.0961666E-1,-5.4750253E-2,-1.372367E-1,-5.9744257E-1,-1.5742902E-1,-4.3614008E-2,-1.1025639E-1,-4.1144374E-3,5.094366E-2,-1.4886475E-2,-2.2683178E-1,-5.9145857E-2],"split_indices":[1,1,2,1,2,1,2,2,2,2,1,2,2,0,2,2,1,2,2,1,1,1,0,2,2,2,0,0,0,2,0,1,1,2,2,2,0,0,2,2,2,1,0,1,2,1,1,2,0,0,0,0,2,1,1,0,0,0,0,0,0,0,0,0,0,0,0,0,0,0,0,0,0,0,0,0,0,0,0,0,0,0,0,0,0,0,0,0,0,0,0,0,0,0,0,0,0,0,0,0,0],"split_type":[0,0,0,0,0,0,0,0,0,0,0,0,0,0,0,0,0,0,0,0,0,0,0,0,0,0,0,0,0,0,0,0,0,0,0,0,0,0,0,0,0,0,0,0,0,0,0,0,0,0,0,0,0,0,0,0,0,0,0,0,0,0,0,0,0,0,0,0,0,0,0,0,0,0,0,0,0,0,0,0,0,0,0,0,0,0,0,0,0,0,0,0,0,0,0,0,0,0,0,0,0],"sum_hessian":[3.328E3,3.29E3,3.8E1,2.732E3,5.58E2,2.1E1,1.7E1,2.041E3,6.91E2,5.03E2,5.5E1,1.2E1,9E0,2E0,1.5E1,7.61E2,1.28E3,2.69E2,4.22E2,4.86E2,1.7E1,4.3E1,1.2E1,7E0,5E0,8E0,1E0,1E0,1E0,1.3E1,2E0,2.6E2,5.01E2,1.205E3,7.5E1,2.34E2,3.5E1,2.7E1,3.95E2,1.5E1,4.71E2,1.3E1,4E0,2.8E1,1.5E1,4E0,8E0,5E0,2E0,1E0,4E0,2E0,6E0,3E0,1E1,1E0,1E0,2.42E2,1.8E1,4.54E2,4.7E1,7.7E1,1.128E3,6E0,6.9E1,1.87E2,4.7E1,1.3E1,2.2E1,1.2E1,1.5E1,5.5E1,3.4E2,5E0,1E1,1.67E2,3.04E2,7E0,6E0,2E0,2E0,6E0,2.2E1,5E0,1E1,1E0,3E0,7E0,1E0,2E0,3E0,1E0,1E0,2E0,2E0,1E0,5E0,1E0,2E0,3E0,7E0],"tree_param":{"num_deleted":"0","num_feature":"3","num_nodes":"101","size_leaf_vector":"1"}},{"base_weights":[-4.9257036E-5,3.1819635E-3,-2.727133E-1,-8.376493E-2,1.1803014E-2,-4.3305597E-1,-6.1588183E-2,-2.6581666E-1,-5.839731E-3,2.2759742E-1,2.2464818E-3,-6.3628095E-1,-1.255579E-1,5.834656E-1,-1.786865E-1,-1.697527E-1,-4.1006604E-1,3.7391436E-1,-1.8765268E-1,1.5531076E-1,2.411584E0,-4.368935E-1,5.637926E-3,-9.007336E-1,-1.7763059E-1,6.418122E-2,-2.749815E-1,4.6590902E-2,2.1596862E-1,-2.3839624E-1,1.595211E-1,-2.4750258E-1,1.4276829E0,2.0475832E-1,9.087665E-1,-4.3051553E-1,1.3266252E-1,4.24036E-1,-2.9396322E-1,3.3418065E-1,9.456794E-1,1.8538952E-1,-1.5490625E0,3.1190625E-1,6.09749E-4,-5.071144E-1,-1.3877274E0,8.1384376E-2,-3.216692E-1,4.2137846E-1,-9.807205E-2,4.23975E-2,-3.1883067E-1,-3.3768084E-2,1.05552584E-1,-5.137372E-2,-6.4430404E-1,6.833058E-1,-1.683489E-1,2.720272E-1,-1.7180444E-3,-8.1261456E-2,-5.5602247E-1,2.9030153E-1,-3.2585677E-2,5.1505417E-2,7.0189595E-1,-6.5376365E-1,2.7130688E-2,-5.1143587E-1,2.399997E-1,-7.295847E-1,2.199194E-1,-6.093766E-2,3.607315E-1,-1.7923553E-1,2.3851069E-3,-1.9569798E-1,3.284197E-2,-1.1665121E-1,-5.0782615E-1,-1.2594329E-1,-3.4891322E-2,2.9078009E-2,1.6054231E-1,-9.371796E-2,-3.0858994E-3,4.3302156E-2,-1.1909104E-2,-1.757947E-1,-4.3620303E-2],"categories":[],"categories_nodes":[],"categories_segments":[],"categories_sizes":[],"default_left":[0,0,0,0,0,0,0,0,0,0,0,0,0,0,0,0,0,0,0,0,0,0,0,0,0,0,0,0,0,0,0,0,0,0,0,0,0,0,0,0,0,0,0,0,0,0,0,0,0,0,0,0,0,0,0,0,0,0,0,0,0,0,0,0,0,0,0,0,0,0,0,0,0,0,0,0,0,0,0,0,0,0,0,0,0,0,0,0,0,0,0],"id":11,"left_children":[1,3,5,7,9,11,13,15,17,19,21,23,25,27,29,31,-1,33,35,37,39,41,43,45,47,49,-1,-1,-1,51,53,55,57,59,-1,61,63,65,67,-1,-1,69,71,73,75,77,79,-1,81,83,85,87,89,-1,-1,-1,-1,-1,-1,-1,-1,-1,-1,-1,-1,-1,-1,-1,-1,-1,-1,-1,-1,-1,-1,-1,-1,-1,-1,-1,-1,-1,-1,-1,-1,-1,-1,-1,-1,-1,-1],"loss_changes":[2.933842E0,2.4678354E0,1.2935712E0,4.2118134E0,6.175916E0,1.2949181E0,1.4638822E0,9.181775E0,1.4500406E1,1.9675331E1,4.275318E0,1.4167895E0,1.5597546E0,6.344044E-2,3.6113787E-1,1.0661988E1,0E0,2.9922707E1,1.1103672E1,1.5095325E1,3.3315468E-1,1.5513025E1,4.3856483E0,8.297844E-1,4.7522658E-1,5.629332E-1,0E0,0E0,0E0,3.2971442E-1,1.9658417E-1,1.1224344E1,8.040252E0,9.609614E0,0E0,1.7897625E1,1.2596383E1,3.7304173E1,3.4257393E1,0E0,0E0,1.8789621E1,1.7901651E1,2.1342255E1,1.2310297E1,6.086283E-1,2.5585747E-1,0E0,5.1948488E-2,5.886197E-2,1.2848698E-1,3.9205737E-2,4.2444992E-1,0E0,0E0,0E0,0E0,0E0,0E0,0E0,0E0,0E0,0E0,0E0,0E0,0E0,0E0,0E0,0E0,0E0,0E0,0E0,0E0,0E0,0E0,0E0,0E0,0E0,0E0,0E0,0E0,0E0,0E0,0E0,0E0,0E0,0E0,0E0,0E0,0E0,0E0],"parents":[2147483647,0,0,1,1,2,2,3,3,4,4,5,5,6,6,7,7,8,8,9,9,10,10,11,11,12,12,13,13,14,14,15,15,17,17,18,18,19,19,20,20,21,21,22,22,23,23,24,24,25,25,29,29,30,30,31,31,32,32,33,33,35,35,36,36,37,37,38,38,41,41,42,42,43,43,44,44,45,45,46,46,48,48,49,49,50,50,51,51,52,52],"right_children":[2,4,6,8,10,12,14,16,18,20,22,24,26,28,30,32,-1,34,36,38,40,42,44,46,48,50,-1,-1,-1,52,54,56,58,60,-1,62,64,66,68,-1,-1,70,72,74,76,78,80,-1,82,84,86,88,90,-1,-1,-1,-1,-1,-1,-1,-1,-1,-1,-1,-1,-1,-1,-1,-1,-1,-1,-1,-1,-1,-1,-1,-1,-1,-1,-1,-1,-1,-1,-1,-1,-1,-1,-1,-1,-1,-1],"split_conditions":[1.4859623E1,2E0,1.5E1,9.685976E0,3E0,1.6123222E1,1.7E1,9.596279E0,1.0995807E1,1.4513379E1,6.6440353E0,1.1E1,1.4E1,1E0,2.2E1,9.584476E0,-4.1006604E-1,1.0638331E1,1.2550326E1,1.1753853E1,1E0,1.6E1,7.1638784E0,7E0,1.2E1,4E0,-2.749815E-1,4.6590902E-2,2.1596862E-1,1.9E1,1E0,9.511259E0,1E0,9.757343E0,9.087665E-1,1.2504778E1,1.3003409E1,1.1182517E1,1.230691E1,3.3418065E-1,9.456794E-1,6E0,2.2E1,1.5E1,7.4048233E0,5E0,1E0,8.1384376E-2,1E0,1E0,5E0,1.6123222E1,1.6123222E1,-3.3768084E-2,1.05552584E-1,-5.137372E-2,-6.4430404E-1,6.833058E-1,-1.683489E-1,2.720272E-1,-1.7180444E-3,-8.1261456E-2,-5.5602247E-1,2.9030153E-1,-3.2585677E-2,5.1505417E-2,7.0189595E-1,-6.5376365E-1,2.7130688E-2,-5.1143587E-1,2.399997E-1,-7.295847E-1,2.199194E-1,-6.093766E-2,3.607315E-1,-1.7923553E-1,2.3851069E-3,-1.9569798E-1,3.284197E-2,-1.1665121E-1,-5.0782615E-1,-1.2594329E-1,-3.4891322E-2,2.9078009E-2,1.6054231E-1,-9.371796E-2,-3.0858994E-3,4.3302156E-2,-1.1909104E-2,-1.757947E-1,-4.3620303E-2],"split_indices":[1,2,2,1,2,1,2,1,1,1,1,2,2,0,2,1,0,1,1,1,0,2,1,2,2,2,0,0,0,2,0,1,0,1,0,1,1,1,1,0,0,2,2,2,1,2,0,0,0,0,2,1,1,0,0,0,0,0,0,0,0,0,0,0,0,0,0,0,0,0,0,0,0,0,0,0,0,0,0,0,0,0,0,0,0,0,0,0,0,0,0],"split_type":[0,0,0,0,0,0,0,0,0,0,0,0,0,0,0,0,0,0,0,0,0,0,0,0,0,0,0,0,0,0,0,0,0,0,0,0,0,0,0,0,0,0,0,0,0,0,0,0,0,0,0,0,0,0,0,0,0,0,0,0,0,0,0,0,0,0,0,0,0,0,0,0,0,0,0,0,0,0,0,0,0,0,0,0,0,0,0,0,0,0,0],"sum_hessian":[3.328E3,3.29E3,3.8E1,2.96E2,2.994E3,2.1E1,1.7E1,8.8E1,2.08E2,1.26E2,2.868E3,1.2E1,9E0,2E0,1.5E1,8.2E1,6E0,6.7E1,1.41E2,1.23E2,3E0,2.1E1,2.847E3,7E0,5E0,8E0,1E0,1E0,1E0,1.3E1,2E0,7.9E1,3E0,6.4E1,3E0,8E1,6.1E1,7.7E1,4.6E1,2E0,1E0,1.4E1,7E0,4.5E1,2.802E3,5E0,2E0,1E0,4E0,2E0,6E0,3E0,1E1,1E0,1E0,7.7E1,2E0,2E0,1E0,1.4E1,5E1,7.3E1,7E0,1.3E1,4.8E1,6.9E1,8E0,7E0,3.9E1,3E0,1.1E1,5E0,2E0,2.9E1,1.6E1,3.3E1,2.769E3,4E0,1E0,1E0,1E0,2E0,2E0,1E0,1E0,1E0,5E0,1E0,2E0,3E0,7E0],"tree_param":{"num_deleted":"0","num_feature":"3","num_nodes":"91","size_leaf_vector":"1"}},{"base_weights":[-1.733172E-5,-1.067359E-2,5.640648E-2,1.2212953E-2,-1.36207E-1,-6.34468E-1,8.1984185E-2,-1.3103658E-2,2.279143E-1,-1.1355691E0,-8.4938034E-2,-1.182348E0,7.4966335E-1,2.4178307E-1,-1.495364E-2,3.3794172E-2,-5.5489227E-2,1.7420716E0,1.438976E-1,-4.3703136E-1,-1.8602575E0,3.4737858E-1,-1.7905748E-1,-1.7095406E-1,-1.7252387E0,1.5583731E0,-4.428482E-2,5.456417E-2,4.2650935E-1,-3.973408E-1,1.6403005E-1,-8.478214E-2,1.7134142E-1,8.852E-3,-3.248658E-1,-1.2736664E0,2.4061754E0,-8.0207705E-1,2.3002419E-1,-1.8135953E-1,-2.2761E-1,-2.4167551E-1,-9.72261E-1,6.9415346E-2,1.5336914E0,-1.4449397E0,-7.366896E-2,-2.6177847E-1,1.4389305E-1,-4.2332903E-1,-6.1102116E-1,7.18935E-1,-1.7667104E-2,-4.3712426E-2,1.1427689E-2,3.407329E-1,-3.1273454E-1,4.3829568E-2,8.4983194E-1,-2.2747293E-1,-1.781932E0,1.250707E0,4.1842625E-2,-1.4506578E-2,-3.2548046E-1,1.2288101E-2,1.0265495E-1,-3.1958324E-1,6.9974097E-3,-1.9047594E-1,6.835686E-2,2.49321E-2,-5.98082E-1,5.291182E-1,1.0594386E0,7.639629E-2,-5.6528217E-1,2.8481898E-1,2.4754284E-2,-2.0642416E-1,3.066826E-2,1.1542854E-1,-3.050192E-1,2.1626364E-1,8.5577357E-1,-1.9801939E-1,-1.0443062E0,6.4515847E-1,-4.390558E-2,-9.938336E-3,1.2779647E-1,-4.7206852E-1,2.8157043E-1,2.222809E-2,8.9769214E-1,-3.6332628E-1,-1.1420164E-3,1.0685913E-1,-4.4645116E-1,3.6377406E-1,9.5289074E-2,7.357793E-2,-2.1799988E-1,-6.4870566E-1,3.0334026E-1,9.023193E-1,6.907412E-2,-2.3621534E-1,4.842938E-2],"categories":[],"categories_nodes":[],"categories_segments":[],"categories_sizes":[],"default_left":[0,0,0,0,0,0,0,0,0,0,0,0,0,0,0,0,0,0,0,0,0,0,0,0,0,0,0,0,0,0,0,0,0,0,0,0,0,0,0,0,0,0,0,0,0,0,0,0,0,0,0,0,0,0,0,0,0,0,0,0,0,0,0,0,0,0,0,0,0,0,0,0,0,0,0,0,0,0,0,0,0,0,0,0,0,0,0,0,0,0,0,0,0,0,0,0,0,0,0,0,0,0,0,0,0,0,0,0,0],"id":12,"left_children":[1,3,5,7,9,11,13,15,17,19,21,23,25,27,29,31,33,35,37,39,41,43,45,47,49,51,53,55,57,59,61,63,65,67,69,71,73,75,77,79,-1,-1,-1,81,83,85,87,-1,89,91,-1,-1,-1,-1,-1,93,95,97,99,101,103,105,107,-1,-1,-1,-1,-1,-1,-1,-1,-1,-1,-1,-1,-1,-1,-1,-1,-1,-1,-1,-1,-1,-1,-1,-1,-1,-1,-1,-1,-1,-1,-1,-1,-1,-1,-1,-1,-1,-1,-1,-1,-1,-1,-1,-1,-1,-1],"loss_changes":[2.0022187E0,8.049008E0,9.399969E0,1.29451475E1,2.2037613E1,1.5294785E1,7.9192886E0,4.2199683E0,3.1425732E1,9.817678E0,1.6826233E1,7.392132E0,3.9214537E0,6.65149E0,2.1897875E1,1.6454851E1,1.9328075E1,2.9100586E1,1.9493732E1,8.4930205E-1,1.1950142E1,2.4295137E1,4.5119358E1,1.4510177E0,2.7876778E0,4.2073016E0,3.897018E-2,1.0302171E1,1.5676462E1,2.3584806E1,2.8893328E1,1.9693918E1,1.0388188E1,1.4031387E1,3.6990005E1,3.0960693E0,1.7237854E0,2.335166E1,2.305463E1,1.2199368E0,0E0,0E0,0E0,2.128445E1,1.2951748E1,3.9252094E1,5.1076363E1,0E0,2.637956E-1,6.1763906E0,0E0,0E0,0E0,0E0,0E0,3.8664047E1,1.1929018E1,2.541453E1,8.495388E0,2.1888842E1,1.3874348E1,3.8752876E1,1.9662838E1,0E0,0E0,0E0,0E0,0E0,0E0,0E0,0E0,0E0,0E0,0E0,0E0,0E0,0E0,0E0,0E0,0E0,0E0,0E0,0E0,0E0,0E0,0E0,0E0,0E0,0E0,0E0,0E0,0E0,0E0,0E0,0E0,0E0,0E0,0E0,0E0,0E0,0E0,0E0,0E0,0E0,0E0,0E0,0E0,0E0,0E0],"parents":[2147483647,0,0,1,1,2,2,3,3,4,4,5,5,6,6,7,7,8,8,9,9,10,10,11,11,12,12,13,13,14,14,15,15,16,16,17,17,18,18,19,19,20,20,21,21,22,22,23,23,24,24,25,25,26,26,27,27,28,28,29,29,30,30,31,31,32,32,33,33,34,34,35,35,36,36,37,37,38,38,39,39,43,43,44,44,45,45,46,46,48,48,49,49,55,55,56,56,57,57,58,58,59,59,60,60,61,61,62,62],"right_children":[2,4,6,8,10,12,14,16,18,20,22,24,26,28,30,32,34,36,38,40,42,44,46,48,50,52,54,56,58,60,62,64,66,68,70,72,74,76,78,80,-1,-1,-1,82,84,86,88,-1,90,92,-1,-1,-1,-1,-1,94,96,98,100,102,104,106,108,-1,-1,-1,-1,-1,-1,-1,-1,-1,-1,-1,-1,-1,-1,-1,-1,-1,-1,-1,-1,-1,-1,-1,-1,-1,-1,-1,-1,-1,-1,-1,-1,-1,-1,-1,-1,-1,-1,-1,-1,-1,-1,-1,-1,-1,-1],"split_conditions":[2E1,1.7E1,7.4048233E0,1.5E1,7.672063E0,2.3E1,9.927907E0,1.0490365E1,7.4048233E0,7.4048233E0,9.111454E0,1E0,7.1638784E0,1E0,1.1277284E1,9.419719E0,1.2E1,6.6440353E0,8.320593E0,7.1638784E0,1E0,8.960773E0,9.511259E0,6.6440353E0,6.6440353E0,1E0,1E0,9.219828E0,9.0656805E0,1.1173226E1,1.17004E1,9.401512E0,9E0,1.0557834E1,1.4E1,1E0,1.6E1,7.7481422E0,9.511259E0,6.6440353E0,-2.2761E-1,-2.4167551E-1,-9.72261E-1,8.647051E0,1E0,9.419719E0,9.596279E0,-2.6177847E-1,2.1E1,2.2E1,-6.1102116E-1,7.18935E-1,-1.7667104E-2,-4.3712426E-2,1.1427689E-2,9.111454E0,9.584476E0,8.928907E0,9.685976E0,2.2E1,2.3E1,1E0,1.2166592E1,-1.4506578E-2,-3.2548046E-1,1.2288101E-2,1.0265495E-1,-3.1958324E-1,6.9974097E-3,-1.9047594E-1,6.835686E-2,2.49321E-2,-5.98082E-1,5.291182E-1,1.0594386E0,7.639629E-2,-5.6528217E-1,2.8481898E-1,2.4754284E-2,-2.0642416E-1,3.066826E-2,1.1542854E-1,-3.050192E-1,2.1626364E-1,8.5577357E-1,-1.9801939E-1,-1.0443062E0,6.4515847E-1,-4.390558E-2,-9.938336E-3,1.2779647E-1,-4.7206852E-1,2.8157043E-1,2.222809E-2,8.9769214E-1,-3.6332628E-1,-1.1420164E-3,1.0685913E-1,-4.4645116E-1,3.6377406E-1,9.5289074E-2,7.357793E-2,-2.1799988E-1,-6.4870566E-1,3.0334026E-1,9.023193E-1,6.907412E-2,-2.3621534E-1,4.842938E-2],"split_indices":[2,2,1,2,1,2,1,1,1,1,1,0,1,0,1,1,2,1,1,1,0,1,1,1,1,0,0,1,1,1,1,1,2,1,2,0,2,1,1,1,0,0,0,1,0,1,1,0,2,2,0,0,0,0,0,1,1,1,1,2,2,0,1,0,0,0,0,0,0,0,0,0,0,0,0,0,0,0,0,0,0,0,0,0,0,0,0,0,0,0,0,0,0,0,0,0,0,0,0,0,0,0,0,0,0,0,0,0,0],"split_type":[0,0,0,0,0,0,0,0,0,0,0,0,0,0,0,0,0,0,0,0,0,0,0,0,0,0,0,0,0,0,0,0,0,0,0,0,0,0,0,0,0,0,0,0,0,0,0,0,0,0,0,0,0,0,0,0,0,0,0,0,0,0,0,0,0,0,0,0,0,0,0,0,0,0,0,0,0,0,0,0,0,0,0,0,0,0,0,0,0,0,0,0,0,0,0,0,0,0,0,0,0,0,0,0,0,0,0,0,0],"sum_hessian":[3.328E3,2.8E3,5.28E2,2.369E3,4.31E2,1.8E1,5.1E2,2.121E3,2.48E2,2E1,4.11E2,1.3E1,5E0,1.92E2,3.18E2,1.007E3,1.114E3,1.2E1,2.36E2,1.1E1,9E0,7.3E1,3.38E2,5E0,8E0,2E0,3E0,9.6E1,9.6E1,1.01E2,2.17E2,5.41E2,4.66E2,9E2,2.14E2,2E0,1E1,1.9E1,2.17E2,7E0,4E0,6E0,3E0,6E1,1.3E1,2.5E1,3.13E2,1E0,4E0,2E0,6E0,1E0,1E0,1E0,2E0,5.4E1,4.2E1,5.1E1,4.5E1,9.1E1,1E1,2.1E1,1.96E2,5.23E2,1.8E1,2.65E2,2.01E2,1.1E1,8.89E2,1.37E2,7.7E1,1E0,1E0,8E0,2E0,1E1,9E0,3.6E1,1.81E2,2E0,5E0,4.7E1,1.3E1,9E0,4E0,1.9E1,6E0,9E0,3.04E2,3E0,1E0,1E0,1E0,5E1,4E0,1E1,3.2E1,4.3E1,8E0,2.6E1,1.9E1,4.7E1,4.4E1,9E0,1E0,7E0,1.4E1,2.4E1,1.72E2],"tree_param":{"num_deleted":"0","num_feature":"3","num_nodes":"109","size_leaf_vector":"1"}},{"base_weights":[-1.6468858E-4,8.53795E-2,-6.898435E-3,2.6260623E-1,-2.7231598E-1,-5.862614E-1,1.0924193E-3,-4.336807E-2,5.8849496E-1,-4.3127826E-1,8.99444E-1,-7.289274E-1,1.5113729E0,1.0279666E-2,-2.1548349E-1,-2.0352857E-1,1.1781886E0,-7.9153776E-1,8.233758E-1,-6.029112E-1,-1.3798497E-2,-1.5016938E-2,1.0105059E0,-1.8690462E-1,-1.451258E0,5.967579E-1,8.335991E-2,4.6089438E-1,-1.2619533E-3,-1.438584E0,-5.927727E-2,4.395997E-3,-1.5762703E0,1.7694378E0,-1.5104485E-1,-3.6080265E-1,-5.3986266E-2,1.7625362E0,4.5002735E-1,1.271594E0,-7.4655926E-1,-9.105434E-1,1.3826711E0,6.110948E-1,6.275735E-1,-1.04871E0,7.6229316E-1,-8.786422E-1,-5.915451E-1,-1.3242368E-1,1.14536E0,-3.8756314E-1,4.9314257E-3,-3.3787727E-2,-2.2152722E0,8.022249E-1,-1.8645038E-1,-1.1425897E-1,9.811859E-2,-1.6935161E-1,-1.1246661E0,2.119217E-2,6.122392E-1,1.33465E-1,-2.908244E-1,3.0273637E-1,1.3006687E0,3.117891E-2,3.9977077E-1,-5.0836974E-1,8.475508E-1,-2.9311332E-1,7.89497E-3,-7.21544E-1,-8.5282385E-2,5.201576E-1,2.2648488E-1,-1.1721039E-2,3.106121E-1,-4.3391252E-1,2.2768956E-1,3.3324584E-1,-1.9606763E-1,3.8851586E-1,-5.090177E-1,5.1231796E-1,-1.3322835E-1,-3.630351E-1,4.7796148E-1,-6.343945E-2,-1.2203833E0,8.454086E-2,-3.9649665E-4,-2.42592E-1,3.0318338E-1,-4.11446E-1,-1.0337043E0,-7.057687E-2,3.3873427E-1],"categories":[],"categories_nodes":[],"categories_segments":[],"categories_sizes":[],"default_left":[0,0,0,0,0,0,0,0,0,0,0,0,0,0,0,0,0,0,0,0,0,0,0,0,0,0,0,0,0,0,0,0,0,0,0,0,0,0,0,0,0,0,0,0,0,0,0,0,0,0,0,0,0,0,0,0,0,0,0,0,0,0,0,0,0,0,0,0,0,0,0,0,0,0,0,0,0,0,0,0,0,0,0,0,0,0,0,0,0,0,0,0,0,0,0,0,0,0,0],"id":13,"left_children":[1,3,5,7,9,11,13,15,17,19,21,23,25,27,29,31,33,35,37,39,41,-1,43,45,47,-1,-1,49,51,53,55,57,59,61,63,-1,-1,65,67,69,71,73,75,-1,77,79,81,-1,83,85,87,89,91,93,95,-1,97,-1,-1,-1,-1,-1,-1,-1,-1,-1,-1,-1,-1,-1,-1,-1,-1,-1,-1,-1,-1,-1,-1,-1,-1,-1,-1,-1,-1,-1,-1,-1,-1,-1,-1,-1,-1,-1,-1,-1,-1,-1,-1],"loss_changes":[1.9182026E0,1.5476061E1,1.4292231E1,1.6278835E1,1.5475428E1,1.367065E1,6.0629516E0,1.686963E1,2.6259048E1,5.150716E0,1.1051149E0,1.5389538E1,1.2154536E0,1.5202589E1,2.3605656E1,2.169936E1,8.126348E0,2.8009133E0,2.304993E1,1.4682047E1,2.8809078E1,0E0,2.259284E0,2.0431993E1,1.9862038E1,0E0,0E0,2.9797394E1,6.8229566E0,1.5200396E1,3.9083282E1,8.453338E0,1.9865509E1,3.0827293E0,2.382035E0,0E0,0E0,3.245747E1,1.5133787E1,2.3220043E1,8.5762615E0,1.2420604E1,6.7505455E-1,0E0,2.2153115E0,1.0442788E1,6.6475244E0,0E0,2.7217724E1,2.3699234E1,3.779417E1,2.8304667E1,4.8601303E0,5.67275E0,4.618103E0,0E0,7.135805E0,0E0,0E0,0E0,0E0,0E0,0E0,0E0,0E0,0E0,0E0,0E0,0E0,0E0,0E0,0E0,0E0,0E0,0E0,0E0,0E0,0E0,0E0,0E0,0E0,0E0,0E0,0E0,0E0,0E0,0E0,0E0,0E0,0E0,0E0,0E0,0E0,0E0,0E0,0E0,0E0,0E0,0E0],"parents":[2147483647,0,0,1,1,2,2,3,3,4,4,5,5,6,6,7,7,8,8,9,9,10,10,11,11,12,12,13,13,14,14,15,15,16,16,17,17,18,18,19,19,20,20,22,22,23,23,24,24,27,27,28,28,29,29,30,30,31,31,32,32,33,33,34,34,37,37,38,38,39,39,40,40,41,41,42,42,44,44,45,45,46,46,48,48,49,49,50,50,51,51,52,52,53,53,54,54,56,56],"right_children":[2,4,6,8,10,12,14,16,18,20,22,24,26,28,30,32,34,36,38,40,42,-1,44,46,48,-1,-1,50,52,54,56,58,60,62,64,-1,-1,66,68,70,72,74,76,-1,78,80,82,-1,84,86,88,90,92,94,96,-1,98,-1,-1,-1,-1,-1,-1,-1,-1,-1,-1,-1,-1,-1,-1,-1,-1,-1,-1,-1,-1,-1,-1,-1,-1,-1,-1,-1,-1,-1,-1,-1,-1,-1,-1,-1,-1,-1,-1,-1,-1,-1,-1],"split_conditions":[7.692132E0,1.6E1,7.7481422E0,7.4048233E0,2.3E1,2.1E1,2.3E1,1.5E1,2E0,7.672063E0,6.6440353E0,1E1,1E0,8.168363E0,8.647051E0,1.3E1,1E0,1E0,7E0,1.7E1,1.9E1,-1.5016938E-2,7.1638784E0,1E0,1.5E1,5.967579E-1,8.335991E-2,1.3E1,8.320593E0,1E0,8.928907E0,1E0,7.1638784E0,6.6440353E0,7.1638784E0,-3.6080265E-1,-5.3986266E-2,6E0,1.4E1,6.6440353E0,2.2E1,1.7E1,2E1,6.110948E-1,7.4048233E0,6E0,8E0,-8.786422E-1,1E0,7.797912E0,7.797912E0,2.2E1,8.611554E0,8.166515E0,8.320593E0,8.022249E-1,1.47572E1,-1.1425897E-1,9.811859E-2,-1.6935161E-1,-1.1246661E0,2.119217E-2,6.122392E-1,1.33465E-1,-2.908244E-1,3.0273637E-1,1.3006687E0,3.117891E-2,3.9977077E-1,-5.0836974E-1,8.475508E-1,-2.9311332E-1,7.89497E-3,-7.21544E-1,-8.5282385E-2,5.201576E-1,2.2648488E-1,-1.1721039E-2,3.106121E-1,-4.3391252E-1,2.2768956E-1,3.3324584E-1,-1.9606763E-1,3.8851586E-1,-5.090177E-1,5.1231796E-1,-1.3322835E-1,-3.630351E-1,4.7796148E-1,-6.343945E-2,-1.2203833E0,8.454086E-2,-3.9649665E-4,-2.42592E-1,3.0318338E-1,-4.11446E-1,-1.0337043E0,-7.057687E-2,3.3873427E-1],"split_indices":[1,2,1,1,2,2,2,2,2,1,1,2,0,1,1,2,0,2,2,2,2,0,1,0,2,0,0,2,1,0,1,0,1,1,1,0,0,2,2,1,2,2,2,0,1,2,2,0,0,1,1,2,1,1,1,0,1,0,0,0,0,0,0,0,0,0,0,0,0,0,0,0,0,0,0,0,0,0,0,0,0,0,0,0,0,0,0,0,0,0,0,0,0,0,0,0,0,0,0],"split_type":[0,0,0,0,0,0,0,0,0,0,0,0,0,0,0,0,0,0,0,0,0,0,0,0,0,0,0,0,0,0,0,0,0,0,0,0,0,0,0,0,0,0,0,0,0,0,0,0,0,0,0,0,0,0,0,0,0,0,0,0,0,0,0,0,0,0,0,0,0,0,0,0,0,0,0,0,0,0,0,0,0,0,0,0,0,0,0,0,0,0,0,0,0,0,0,0,0,0,0],"sum_hessian":[3.328E3,2.42E2,3.086E3,1.62E2,8E1,4.1E1,3.045E3,8.4E1,7.8E1,7.1E1,9E0,3.9E1,2E0,2.922E3,1.23E2,7.5E1,9E0,1.1E1,6.7E1,5E1,2.1E1,1E0,8E0,2.3E1,1.6E1,1E0,1E0,7.2E1,2.85E3,1.3E1,1.1E2,6.6E1,9E0,6E0,3E0,6E0,5E0,1.8E1,4.9E1,3E0,4.7E1,1.3E1,8E0,1E0,7E0,1.2E1,1.1E1,5E0,1.1E1,3.9E1,3.3E1,4.4E1,2.806E3,5E0,8E0,4E0,1.06E2,3E1,3.6E1,7E0,2E0,1E0,5E0,2E0,1E0,1.5E1,3E0,3.6E1,1.3E1,1E0,2E0,3.6E1,1.1E1,3E0,1E1,4E0,4E0,3E0,4E0,1E1,2E0,9E0,2E0,4E0,7E0,5E0,3.4E1,5E0,2.8E1,4.3E1,1E0,6.1E1,2.745E3,3E0,2E0,6E0,2E0,1.03E2,3E0],"tree_param":{"num_deleted":"0","num_feature":"3","num_nodes":"99","size_leaf_vector":"1"}},{"base_weights":[-3.504044E-5,2.498208E-2,-2.3339832E-2,3.8331177E-2,-3.1375045E-1,-1.5677321E-1,1.437043E-3,1.850376E-2,3.2794496E-1,-7.779021E-2,-6.504216E-1,-3.9868843E-2,-1.3533819E0,5.965882E-1,-3.8240753E-2,3.317982E-2,-1.0310258E0,-1.5210173E-1,6.0467166E-1,-3.4213826E-1,1.3450311E0,-6.7149734E-1,-4.1502464E-1,-9.902121E-1,4.40814E-3,-2.0638256E0,-3.2614604E-1,3.741132E-1,9.5855767E-1,3.42704E-1,-5.6936778E-2,1.6249804E-2,5.784996E-1,-1.4152186E0,4.8534206E-1,9.0802616E-1,-4.7586206E-1,1.4661529E0,2.544253E-1,2.6650947E-1,-4.928458E-1,1.939275E0,-2.4392825E-1,2.9709075E-2,-6.5419656E-1,6.647441E-1,-1.4318405E0,5.1250953E-2,-8.06672E-1,-8.83913E-3,-2.615973E0,5.928254E-1,-4.3094796E-1,6.87705E-1,-8.852973E-1,1.7717397E0,2.2332242E-1,-4.5857137E-1,5.364324E-1,-6.1606306E-1,-3.2717597E-2,1.0241885E-2,-1.3884199E-1,4.8745075E-1,-2.4861173E-1,1.0201245E-1,-6.349427E-1,4.91735E-1,-1.2468482E-1,-3.6093634E-1,1.0624218E-2,2.317125E-1,1.1103847E0,-8.0166124E-2,2.3630679E-1,-2.2722645E-1,2.4826986E-1,-3.009426E-1,-9.707341E-2,-1.3196956E-1,7.9321295E-1,-2.231974E-2,7.881756E-2,-6.131678E-1,-8.49524E-2,-1.348489E-1,4.339837E-1,-4.8716152E-1,1.566124E-2,-6.309162E-2,6.623791E-2,1.4025031E-1,-4.9844033E-1,-9.5266926E-1,-4.8611596E-1,1.2230324E-1,3.4736708E-1,-1.5403798E-1,-3.909533E-1,1.8496552E-1,7.209592E-1,-3.5811212E-2,4.614793E-1,3.5539888E-2,-7.2645575E-1,6.1907184E-1,1.09853886E-1,-3.3479038E-1,2.2742622E-1,5.10699E-2,-2.4347996E-2],"categories":[],"categories_nodes":[],"categories_segments":[],"categories_sizes":[],"default_left":[0,0,0,0,0,0,0,0,0,0,0,0,0,0,0,0,0,0,0,0,0,0,0,0,0,0,0,0,0,0,0,0,0,0,0,0,0,0,0,0,0,0,0,0,0,0,0,0,0,0,0,0,0,0,0,0,0,0,0,0,0,0,0,0,0,0,0,0,0,0,0,0,0,0,0,0,0,0,0,0,0,0,0,0,0,0,0,0,0,0,0,0,0,0,0,0,0,0,0,0,0,0,0,0,0,0,0,0,0,0,0],"id":14,"left_children":[1,3,5,7,9,11,13,15,17,19,21,23,25,27,29,31,33,35,37,39,41,-1,43,45,47,49,51,53,55,57,59,61,63,65,-1,67,69,71,73,75,77,79,-1,81,83,85,87,89,91,-1,93,-1,-1,95,97,99,101,103,105,107,109,-1,-1,-1,-1,-1,-1,-1,-1,-1,-1,-1,-1,-1,-1,-1,-1,-1,-1,-1,-1,-1,-1,-1,-1,-1,-1,-1,-1,-1,-1,-1,-1,-1,-1,-1,-1,-1,-1,-1,-1,-1,-1,-1,-1,-1,-1,-1,-1,-1,-1],"loss_changes":[1.9414526E0,7.2739944E0,5.6998763E0,8.871517E0,4.795305E0,3.771601E1,3.43816E1,2.2337688E1,1.3243304E1,1.4376628E1,8.4157295E0,1.0397713E1,1.6841927E1,6.9695435E0,9.741251E0,1.3183518E1,2.2642803E1,1.3131507E1,1.863601E1,3.066637E0,9.271528E0,0E0,2.465895E0,8.991441E0,9.045749E0,1.564867E1,3.0957659E1,2.3515388E1,1.9932257E1,1.01807E1,1.7610983E1,1.1902708E1,6.466013E1,2.2875679E1,0E0,9.390562E0,1.0825683E1,2.5053516E1,1.3006531E1,4.6481996E0,1.9211998E0,9.546938E0,0E0,2.3787653E-1,7.1553354E0,3.2638144E0,2.6496181E0,1.0024015E1,1.4935786E1,0E0,9.8269653E-1,0E0,0E0,5.7162E0,1.1954727E0,1.0189537E1,8.745433E0,1.50119E1,1.2764356E1,3.7941E1,1.2293249E1,0E0,0E0,0E0,0E0,0E0,0E0,0E0,0E0,0E0,0E0,0E0,0E0,0E0,0E0,0E0,0E0,0E0,0E0,0E0,0E0,0E0,0E0,0E0,0E0,0E0,0E0,0E0,0E0,0E0,0E0,0E0,0E0,0E0,0E0,0E0,0E0,0E0,0E0,0E0,0E0,0E0,0E0,0E0,0E0,0E0,0E0,0E0,0E0,0E0,0E0],"parents":[2147483647,0,0,1,1,2,2,3,3,4,4,5,5,6,6,7,7,8,8,9,9,10,10,11,11,12,12,13,13,14,14,15,15,16,16,17,17,18,18,19,19,20,20,22,22,23,23,24,24,25,25,26,26,27,27,28,28,29,29,30,30,31,31,32,32,33,33,35,35,36,36,37,37,38,38,39,39,40,40,41,41,43,43,44,44,45,45,46,46,47,47,48,48,50,50,53,53,54,54,55,55,56,56,57,57,58,58,59,59,60,60],"right_children":[2,4,6,8,10,12,14,16,18,20,22,24,26,28,30,32,34,36,38,40,42,-1,44,46,48,50,52,54,56,58,60,62,64,66,-1,68,70,72,74,76,78,80,-1,82,84,86,88,90,92,-1,94,-1,-1,96,98,100,102,104,106,108,110,-1,-1,-1,-1,-1,-1,-1,-1,-1,-1,-1,-1,-1,-1,-1,-1,-1,-1,-1,-1,-1,-1,-1,-1,-1,-1,-1,-1,-1,-1,-1,-1,-1,-1,-1,-1,-1,-1,-1,-1,-1,-1,-1,-1,-1,-1,-1,-1,-1,-1],"split_conditions":[1E0,1.4513379E1,8.68075E0,1.3543484E1,1.5E1,8.611554E0,9.111454E0,1.3317656E1,6E0,1.4E1,1.6E1,1E0,1.2E1,1.5E1,1E0,1.3140137E1,1.8E1,1E0,9E0,3E0,1.4859623E1,-6.7149734E-1,1.8E1,7.672063E0,2.3E1,3E0,1.4E1,1.2E1,2E1,9.864286E0,2E0,1.3012017E1,1.4E1,5E0,4.8534206E-1,1.4471217E1,3E0,1.4471217E1,1.6E1,1E0,6E0,1.47572E1,-2.4392825E-1,1.7E1,1.9E1,7.4048233E0,8.166515E0,7.672063E0,7.7481422E0,-8.83913E-3,8E0,5.928254E-1,-4.3094796E-1,8E0,1.4E1,8.928907E0,9.0656805E0,9.757343E0,9.946839E0,1.2323822E1,6E0,1.0241885E-2,-1.3884199E-1,4.8745075E-1,-2.4861173E-1,1.0201245E-1,-6.349427E-1,4.91735E-1,-1.2468482E-1,-3.6093634E-1,1.0624218E-2,2.317125E-1,1.1103847E0,-8.0166124E-2,2.3630679E-1,-2.2722645E-1,2.4826986E-1,-3.009426E-1,-9.707341E-2,-1.3196956E-1,7.9321295E-1,-2.231974E-2,7.881756E-2,-6.131678E-1,-8.49524E-2,-1.348489E-1,4.339837E-1,-4.8716152E-1,1.566124E-2,-6.309162E-2,6.623791E-2,1.4025031E-1,-4.9844033E-1,-9.5266926E-1,-4.8611596E-1,1.2230324E-1,3.4736708E-1,-1.5403798E-1,-3.909533E-1,1.8496552E-1,7.209592E-1,-3.5811212E-2,4.614793E-1,3.5539888E-2,-7.2645575E-1,6.1907184E-1,1.09853886E-1,-3.3479038E-1,2.2742622E-1,5.10699E-2,-2.4347996E-2],"split_indices":[0,1,1,1,2,1,1,1,2,2,2,2,2,2,2,1,2,2,2,2,1,0,2,1,2,2,2,2,2,1,2,1,2,2,0,1,2,1,2,2,2,1,0,2,2,1,1,1,1,0,2,0,0,2,2,1,1,1,1,1,2,0,0,0,0,0,0,0,0,0,0,0,0,0,0,0,0,0,0,0,0,0,0,0,0,0,0,0,0,0,0,0,0,0,0,0,0,0,0,0,0,0,0,0,0,0,0,0,0,0,0],"split_type":[0,0,0,0,0,0,0,0,0,0,0,0,0,0,0,0,0,0,0,0,0,0,0,0,0,0,0,0,0,0,0,0,0,0,0,0,0,0,0,0,0,0,0,0,0,0,0,0,0,0,0,0,0,0,0,0,0,0,0,0,0,0,0,0,0,0,0,0,0,0,0,0,0,0,0,0,0,0,0,0,0,0,0,0,0,0,0,0,0,0,0,0,0,0,0,0,0,0,0,0,0,0,0,0,0,0,0,0,0,0,0],"sum_hessian":[3.328E3,1.605E3,1.723E3,1.545E3,6E1,2.69E2,1.454E3,1.447E3,9.8E1,3.6E1,2.4E1,2.46E2,2.3E1,9E1,1.364E3,1.428E3,1.9E1,3.6E1,6.2E1,3.1E1,5E0,2E0,2.2E1,1E1,2.36E2,1.3E1,1E1,5.7E1,3.3E1,6.3E1,1.301E3,1.386E3,4.2E1,1.7E1,2E0,8E0,2.8E1,1.7E1,4.5E1,6E0,2.5E1,4E0,1E0,8E0,1.4E1,2E0,8E0,2.24E2,1.2E1,3E0,1E1,3E0,7E0,4.6E1,1.1E1,1.5E1,1.8E1,1.2E1,5.1E1,5.3E1,1.248E3,1.337E3,4.9E1,2.4E1,1.8E1,5E0,1.2E1,5E0,3E0,1.1E1,1.7E1,1.4E1,3E0,2.3E1,2.2E1,2E0,4E0,5E0,2E1,1E0,3E0,6E0,2E0,2E0,1.2E1,1E0,1E0,7E0,1E0,8.8E1,1.36E2,5E0,7E0,5E0,5E0,3E1,1.6E1,7E0,4E0,6E0,9E0,1.5E1,3E0,1E1,2E0,4E0,4.7E1,3.9E1,1.4E1,2.4E2,1.008E3],"tree_param":{"num_deleted":"0","num_feature":"3","num_nodes":"111","size_leaf_vector":"1"}},{"base_weights":[-1.1346518E-4,-1.2985509E-2,6.804288E-2,-3.9034776E-2,6.8798356E-2,1.2285648E-1,-1.5185344E-1,-1.822397E-2,-3.2308424E-1,4.853828E-1,1.609202E-2,5.6001604E-2,1.0663754E0,-6.1933863E-1,-1.6452312E-2,-4.5005064E-3,-2.6586282E-1,-2.3405762E-1,-1.1394006E0,-6.755756E-1,6.7152154E-1,-5.4804975E-1,4.2508226E-2,9.0943746E-2,-6.84777E-1,2.300551E0,1.3246475E-1,5.396813E-1,-1.802295E-1,-7.847423E-3,7.788222E-1,-6.83347E-1,3.9631736E-2,-3.7974754E-1,1.8056156E-1,-2.162169E0,-1.02053165E-1,-1.9421816E0,4.217434E-2,1.2438915E0,6.145801E-2,3.3390027E-1,-1.0075748E0,-2.7694194E-2,2.2055297E-1,4.636503E-2,1.4541606E0,-1.3467036E0,5.477796E-1,7.2110224E-1,1.7492925E-1,7.2968197E-1,-1.771826E-1,8.300698E-1,-1.08555794E-1,-3.0697116E-1,2.5929663E-1,1.3801785E-3,-4.783428E-2,-6.230447E-1,4.4503754E-1,-1.1015446E-1,-7.873595E-1,2.2068802E-1,-2.4207613E-1,-3.4373507E-2,-4.428788E-1,4.031895E-1,-1.9771172E-1,-1.1742164E0,3.9077714E-2,2.5630394E-1,-3.8161185E-1,-9.19441E-1,-1.6391201E-1,3.811995E-1,-4.511948E-1,2.2204465E-1,7.682814E-1,-1.3408886E-1,2.3501511E-1,-2.5653952E-1,6.993694E-1,-7.122619E-1,-3.7922554E-2,4.4074166E-3,-1.4612678E-1,1.4266191E-1,-8.254367E-2,2.6484376E-2,-1.679577E-1,9.626021E-1,3.0088854E-1,9.9562004E-2,-6.682429E-1,6.4841616E-1,-1.5898225E-1,1.3049126E-3,2.6216355E-1,-1.4156014E-1,2.59248E-1,8.046942E-2,4.542344E-1,-4.63756E-1,1.8845569E-1,-3.9422113E-2,-5.6832236E-1,3.2180482E-1,-7.1036E-2],"categories":[],"categories_nodes":[],"categories_segments":[],"categories_sizes":[],"default_left":[0,0,0,0,0,0,0,0,0,0,0,0,0,0,0,0,0,0,0,0,0,0,0,0,0,0,0,0,0,0,0,0,0,0,0,0,0,0,0,0,0,0,0,0,0,0,0,0,0,0,0,0,0,0,0,0,0,0,0,0,0,0,0,0,0,0,0,0,0,0,0,0,0,0,0,0,0,0,0,0,0,0,0,0,0,0,0,0,0,0,0,0,0,0,0,0,0,0,0,0,0,0,0,0,0,0,0,0,0],"id":15,"left_children":[1,3,5,7,9,11,13,15,17,19,21,23,25,-1,27,29,31,33,35,37,39,41,43,45,47,49,51,53,55,57,59,61,63,65,67,69,71,73,75,77,79,81,83,85,87,89,91,93,95,-1,-1,97,99,101,103,105,107,-1,-1,-1,-1,-1,-1,-1,-1,-1,-1,-1,-1,-1,-1,-1,-1,-1,-1,-1,-1,-1,-1,-1,-1,-1,-1,-1,-1,-1,-1,-1,-1,-1,-1,-1,-1,-1,-1,-1,-1,-1,-1,-1,-1,-1,-1,-1,-1,-1,-1,-1,-1],"loss_changes":[2.9214535E0,5.9699626E0,6.394857E0,1.255562E1,1.48568325E1,2.668571E1,2.7416782E1,6.731158E0,1.0271027E1,1.6877218E1,8.994594E0,1.0338379E1,3.1968332E1,0E0,9.205466E0,4.9296937E0,1.3291155E1,8.042139E0,1.463287E1,1.0082081E1,2.2969566E1,1.1278936E1,7.2056303E0,2.3025349E1,1.5423214E1,7.237358E-1,3.2730412E0,4.419642E0,4.4246855E0,3.531538E0,1.9178356E1,2.6040688E1,3.653455E1,2.8325531E1,3.5073517E1,2.8622345E1,1.0038558E1,4.5933294E0,1.7106573E1,2.0661911E1,1.2462529E1,2.5742413E1,2.137601E1,8.068451E0,2.0733479E1,9.425943E0,6.281431E0,1.8480576E1,1.3318531E1,0E0,0E0,6.2374115E-1,4.0901785E0,5.7430286E0,9.442415E0,1.6751572E1,7.517129E0,0E0,0E0,0E0,0E0,0E0,0E0,0E0,0E0,0E0,0E0,0E0,0E0,0E0,0E0,0E0,0E0,0E0,0E0,0E0,0E0,0E0,0E0,0E0,0E0,0E0,0E0,0E0,0E0,0E0,0E0,0E0,0E0,0E0,0E0,0E0,0E0,0E0,0E0,0E0,0E0,0E0,0E0,0E0,0E0,0E0,0E0,0E0,0E0,0E0,0E0,0E0,0E0],"parents":[2147483647,0,0,1,1,2,2,3,3,4,4,5,5,6,6,7,7,8,8,9,9,10,10,11,11,12,12,14,14,15,15,16,16,17,17,18,18,19,19,20,20,21,21,22,22,23,23,24,24,25,25,26,26,27,27,28,28,29,29,30,30,31,31,32,32,33,33,34,34,35,35,36,36,37,37,38,38,39,39,40,40,41,41,42,42,43,43,44,44,45,45,46,46,47,47,48,48,51,51,52,52,53,53,54,54,55,55,56,56],"right_children":[2,4,6,8,10,12,14,16,18,20,22,24,26,-1,28,30,32,34,36,38,40,42,44,46,48,50,52,54,56,58,60,62,64,66,68,70,72,74,76,78,80,82,84,86,88,90,92,94,96,-1,-1,98,100,102,104,106,108,-1,-1,-1,-1,-1,-1,-1,-1,-1,-1,-1,-1,-1,-1,-1,-1,-1,-1,-1,-1,-1,-1,-1,-1,-1,-1,-1,-1,-1,-1,-1,-1,-1,-1,-1,-1,-1,-1,-1,-1,-1,-1,-1,-1,-1,-1,-1,-1,-1,-1,-1,-1],"split_conditions":[2E1,1.2550326E1,1.2550326E1,1.238155E1,1.2768533E1,1.2323822E1,1.2768533E1,1.9E1,1.8E1,3E0,1.2815824E1,1.230691E1,1.2408631E1,-6.1933863E-1,2.1E1,1.2323822E1,9.676036E0,1.4E1,1.2504778E1,1E0,1E0,7E0,1.4E1,1.2248191E1,2.2E1,2.3E1,2.1E1,1.4235368E1,1.3869858E1,1.2234733E1,1E0,9.419719E0,1.1182517E1,1.2E1,1.2408631E1,1E0,1E0,1.2610138E1,1.2610138E1,1.5E1,1.2610138E1,6E0,1.1E1,1.3E1,1.4235368E1,1.2042181E1,1.2287541E1,2.1E1,2.3E1,7.2110224E-1,1.7492925E-1,1.2504778E1,2.3E1,1.32046175E1,1.4513379E1,1.3683821E1,1.4513379E1,1.3801785E-3,-4.783428E-2,-6.230447E-1,4.4503754E-1,-1.1015446E-1,-7.873595E-1,2.2068802E-1,-2.4207613E-1,-3.4373507E-2,-4.428788E-1,4.031895E-1,-1.9771172E-1,-1.1742164E0,3.9077714E-2,2.5630394E-1,-3.8161185E-1,-9.19441E-1,-1.6391201E-1,3.811995E-1,-4.511948E-1,2.2204465E-1,7.682814E-1,-1.3408886E-1,2.3501511E-1,-2.5653952E-1,6.993694E-1,-7.122619E-1,-3.7922554E-2,4.4074166E-3,-1.4612678E-1,1.4266191E-1,-8.254367E-2,2.6484376E-2,-1.679577E-1,9.626021E-1,3.0088854E-1,9.9562004E-2,-6.682429E-1,6.4841616E-1,-1.5898225E-1,1.3049126E-3,2.6216355E-1,-1.4156014E-1,2.59248E-1,8.046942E-2,4.542344E-1,-4.63756E-1,1.8845569E-1,-3.9422113E-2,-5.6832236E-1,3.2180482E-1,-7.1036E-2],"split_indices":[2,1,1,1,1,1,1,2,2,2,1,1,1,0,2,1,1,2,1,0,0,2,2,1,2,2,2,1,1,1,2,1,1,2,1,0,0,1,1,2,1,2,2,2,1,1,1,2,2,0,0,1,2,1,1,1,1,0,0,0,0,0,0,0,0,0,0,0,0,0,0,0,0,0,0,0,0,0,0,0,0,0,0,0,0,0,0,0,0,0,0,0,0,0,0,0,0,0,0,0,0,0,0,0,0,0,0,0,0],"split_type":[0,0,0,0,0,0,0,0,0,0,0,0,0,0,0,0,0,0,0,0,0,0,0,0,0,0,0,0,0,0,0,0,0,0,0,0,0,0,0,0,0,0,0,0,0,0,0,0,0,0,0,0,0,0,0,0,0,0,0,0,0,0,0,0,0,0,0,0,0,0,0,0,0,0,0,0,0,0,0,0,0,0,0,0,0,0,0,0,0,0,0,0,0,0,0,0,0,0,0,0,0,0,0,0,0,0,0,0,0],"sum_hessian":[3.328E3,2.8E3,5.28E2,2.124E3,6.76E2,4.23E2,1.05E2,1.98E3,1.44E2,7.5E1,6.01E2,3.96E2,2.7E1,6E0,9.9E1,1.877E3,1.03E2,1.31E2,1.3E1,1E1,6.5E1,2.6E1,5.75E2,3.79E2,1.7E1,1.1E1,1.6E1,2.2E1,7.7E1,1.87E3,7E0,4.3E1,6E1,9.7E1,3.4E1,6E0,7E0,3E0,7E0,3.3E1,3.2E1,9E0,1.7E1,4.13E2,1.62E2,3.68E2,1.1E1,1.1E1,6E0,1E1,1E0,5E0,1.1E1,1.5E1,7E0,6E1,1.7E1,1.729E3,1.41E2,1E0,6E0,3.8E1,5E0,3.3E1,2.7E1,7.9E1,1.8E1,1.4E1,2E1,3E0,3E0,4E0,3E0,1E0,2E0,4E0,3E0,2.5E1,8E0,1.9E1,1.3E1,6E0,3E0,6E0,1.1E1,3.79E2,3.4E1,1.07E2,5.5E1,3.45E2,2.3E1,1E0,1E1,4E0,7E0,2E0,4E0,1E0,4E0,9E0,2E0,9E0,6E0,2E0,5E0,5.5E1,5E0,6E0,1.1E1],"tree_param":{"num_deleted":"0","num_feature":"3","num_nodes":"109","size_leaf_vector":"1"}},{"base_weights":[-5.373784E-4,-4.2866036E-2,1.18525075E-2,-5.739144E-3,-4.1136143E-1,2.227089E0,5.8141774E-3,-9.765767E-2,8.486767E-2,7.699824E-1,-9.092565E-1,1.2515208E0,1.2120748E0,3.7426572E-2,-2.3005608E-2,-6.661063E-3,-4.9909252E-1,5.9245926E-1,-2.3691611E-2,1.2479835E0,2.2198296E-1,-9.857363E-1,-2.1563862E-1,7.3318255E-1,4.4324875E-2,5.510776E-2,-3.9764735E-1,-5.2066144E-2,1.3609967E-1,1.6769573E-1,-2.2915989E-1,-7.280947E-1,9.5581985E-1,9.95125E-1,-8.304276E-1,-4.971194E-1,3.581184E-2,6.8261236E-1,5.7829E-1,-8.1427956E-1,7.1236634E-1,-9.8688513E-1,7.3897594E-1,-2.1678258E-1,5.408389E-1,-5.87223E-1,6.726335E-2,-1.0875137E0,-1.7852035E-1,1.9075576E-3,-2.6987997E-1,8.370437E-1,4.8692074E-2,-1.640644E-2,1.7092724E-1,-2.3519541E-1,6.0636457E-2,-1.6769618E-1,-5.4234993E-1,6.883093E-1,-1.7216653E-1,8.012897E-2,7.736944E-1,-3.7347928E-1,4.9399342E-2,1.0695834E-1,-4.1191486E-1,-2.547562E-2,7.099693E-2,4.4454318E-1,-7.8055345E-2,5.453949E-2,-5.70377E-1,-2.9512617E-1,4.3250963E-1,-6.4906615E-1,-8.8060856E-2,8.3255774E-1,1.3678558E-1,2.9939348E-1,-5.6015972E-2,-3.670893E-2,-4.697613E-1,9.668175E-1,1.6059967E-2,3.0087382E-1,-2.1802151E-1,-4.9267706E-2,1.48916785E-2,-1.21220104E-1,1.0363603E-1,-6.425591E-2,3.422854E-1,-9.901842E-2,5.8266483E-2],"categories":[],"categories_nodes":[],"categories_segments":[],"categories_sizes":[],"default_left":[0,0,0,0,0,0,0,0,0,0,0,0,0,0,0,0,0,0,0,0,0,0,0,0,0,0,0,0,0,0,0,0,0,0,0,0,0,0,0,0,0,0,0,0,0,0,0,0,0,0,0,0,0,0,0,0,0,0,0,0,0,0,0,0,0,0,0,0,0,0,0,0,0,0,0,0,0,0,0,0,0,0,0,0,0,0,0,0,0,0,0,0,0,0,0],"id":16,"left_children":[1,3,5,7,9,11,13,15,17,19,21,23,-1,25,27,29,31,33,35,37,39,-1,41,-1,43,45,47,49,51,53,55,57,59,61,63,65,67,-1,69,71,73,75,77,-1,79,81,83,-1,85,87,89,91,93,-1,-1,-1,-1,-1,-1,-1,-1,-1,-1,-1,-1,-1,-1,-1,-1,-1,-1,-1,-1,-1,-1,-1,-1,-1,-1,-1,-1,-1,-1,-1,-1,-1,-1,-1,-1,-1,-1,-1,-1,-1,-1],"loss_changes":[1.746393E0,1.0313181E1,3.4444473E1,5.7216005E0,4.1284897E1,7.325573E0,2.3422916E0,1.24531355E1,1.9079943E1,5.223797E0,8.006328E1,8.528586E0,0E0,9.453071E0,6.225942E0,1.0862007E1,2.1686148E1,3.57762E1,8.074591E0,6.2525806E0,6.1698904E0,0E0,2.9442768E1,0E0,1.9139876E0,9.245021E0,3.3298935E1,1.3379091E1,1.27029505E1,1.406885E1,2.9590593E1,9.031996E0,1.9744951E1,5.46596E1,5.979559E0,2.4417059E1,6.2033577E0,0E0,6.446176E0,4.6765003E0,1.131456E1,1.7313446E1,9.108011E0,0E0,1.1841297E0,9.816948E0,4.999771E1,0E0,3.0522264E1,7.248029E0,1.8800354E1,7.5923424E0,1.031639E1,0E0,0E0,0E0,0E0,0E0,0E0,0E0,0E0,0E0,0E0,0E0,0E0,0E0,0E0,0E0,0E0,0E0,0E0,0E0,0E0,0E0,0E0,0E0,0E0,0E0,0E0,0E0,0E0,0E0,0E0,0E0,0E0,0E0,0E0,0E0,0E0,0E0,0E0,0E0,0E0,0E0,0E0],"parents":[2147483647,0,0,1,1,2,2,3,3,4,4,5,5,6,6,7,7,8,8,9,9,10,10,11,11,13,13,14,14,15,15,16,16,17,17,18,18,19,19,20,20,22,22,24,24,25,25,26,26,27,27,28,28,29,29,30,30,31,31,32,32,33,33,34,34,35,35,36,36,38,38,39,39,40,40,41,41,42,42,44,44,45,45,46,46,48,48,49,49,50,50,51,51,52,52],"right_children":[2,4,6,8,10,12,14,16,18,20,22,24,-1,26,28,30,32,34,36,38,40,-1,42,-1,44,46,48,50,52,54,56,58,60,62,64,66,68,-1,70,72,74,76,78,-1,80,82,84,-1,86,88,90,92,94,-1,-1,-1,-1,-1,-1,-1,-1,-1,-1,-1,-1,-1,-1,-1,-1,-1,-1,-1,-1,-1,-1,-1,-1,-1,-1,-1,-1,-1,-1,-1,-1,-1,-1,-1,-1,-1,-1,-1,-1,-1,-1],"split_conditions":[9.163347E0,9.0656805E0,9.219828E0,1.2E1,6E0,1.6E1,1E0,1E1,1.4E1,1E0,1E1,3E0,1.2120748E0,2.3E1,2E1,8.320593E0,8.928907E0,8.647051E0,1.5E1,9.111454E0,9.111454E0,-9.857363E-1,1E0,7.3318255E-1,5E0,9.2672E0,9.596279E0,1.6E1,9.685976E0,6E0,8.68075E0,8.647051E0,9.000648E0,8.166515E0,1.3E1,8.166515E0,8.320593E0,6.8261236E-1,2E0,2E0,3E0,1.6E1,1.1E1,-2.1678258E-1,1E0,1.9E1,9.401512E0,-1.0875137E0,1.0473402E1,9.946839E0,1.3317656E1,2.1E1,1.0473402E1,-1.640644E-2,1.7092724E-1,-2.3519541E-1,6.0636457E-2,-1.6769618E-1,-5.4234993E-1,6.883093E-1,-1.7216653E-1,8.012897E-2,7.736944E-1,-3.7347928E-1,4.9399342E-2,1.0695834E-1,-4.1191486E-1,-2.547562E-2,7.099693E-2,4.4454318E-1,-7.8055345E-2,5.453949E-2,-5.70377E-1,-2.9512617E-1,4.3250963E-1,-6.4906615E-1,-8.8060856E-2,8.3255774E-1,1.3678558E-1,2.9939348E-1,-5.6015972E-2,-3.670893E-2,-4.697613E-1,9.668175E-1,1.6059967E-2,3.0087382E-1,-2.1802151E-1,-4.9267706E-2,1.48916785E-2,-1.21220104E-1,1.0363603E-1,-6.425591E-2,3.422854E-1,-9.901842E-2,5.8266483E-2],"split_indices":[1,1,1,2,2,2,0,2,2,0,2,2,0,2,2,1,1,1,2,1,1,0,0,0,2,1,1,2,1,2,1,1,1,1,2,1,1,0,2,2,2,2,2,0,0,2,1,0,1,1,1,2,1,0,0,0,0,0,0,0,0,0,0,0,0,0,0,0,0,0,0,0,0,0,0,0,0,0,0,0,0,0,0,0,0,0,0,0,0,0,0,0,0,0,0],"split_type":[0,0,0,0,0,0,0,0,0,0,0,0,0,0,0,0,0,0,0,0,0,0,0,0,0,0,0,0,0,0,0,0,0,0,0,0,0,0,0,0,0,0,0,0,0,0,0,0,0,0,0,0,0,0,0,0,0,0,0,0,0,0,0,0,0,0,0,0,0,0,0,0,0,0,0,0,0,0,0,0,0,0,0,0,0,0,0,0,0,0,0,0,0,0,0],"sum_hessian":[3.328E3,7.53E2,2.575E3,6.85E2,6.8E1,6E0,2.569E3,3.4E2,3.45E2,2E1,4.8E1,5E0,1E0,1.225E3,1.344E3,2.78E2,6.2E1,6E1,2.85E2,1E1,1E1,1E1,3.8E1,2E0,3E0,1.178E3,4.7E1,1.137E3,2.07E2,1.56E2,1.22E2,5.4E1,8E0,4.7E1,1.3E1,3.1E1,2.54E2,3E0,7E0,3E0,7E0,2.1E1,1.7E1,1E0,2E0,2.1E1,1.157E3,2E0,4.5E1,9.12E2,2.25E2,2.2E1,1.85E2,1.01E2,5.5E1,5.3E1,6.9E1,4.8E1,6E0,4E0,4E0,3.3E1,1.4E1,9E0,4E0,1.6E1,1.5E1,1.59E2,9.5E1,3E0,4E0,2E0,1E0,2E0,5E0,7E0,1.4E1,1E0,1.6E1,1E0,1E0,1.5E1,6E0,4E0,1.153E3,1.4E1,3.1E1,2.03E2,7.09E2,1.85E2,4E1,5E0,1.7E1,5.1E1,1.34E2],"tree_param":{"num_deleted":"0","num_feature":"3","num_nodes":"95","size_leaf_vector":"1"}},{"base_weights":[1.0500874E-4,-2.5120825E-2,1.829102E-2,2.1099268E-1,-4.1566197E-2,2.2681344E-3,1.542388E-1,-8.910188E-2,4.5885226E-1,-2.5404844E-1,-2.0032102E-2,6.37976E-2,-6.0050055E-2,7.894753E-1,4.067352E-3,4.1631413E-1,-4.4943732E-1,7.946448E-1,-4.6402756E-3,-1.16995566E-1,-7.973851E-1,4.5906734E-1,-3.2862596E-2,-1.2953783E0,7.313008E-2,-4.283365E-1,-3.2915622E-2,1.1929351E0,-1.2253319E0,-5.505567E-1,1.5109596E-1,8.8463134E-1,-4.459888E-1,-1.0418837E0,1.775812E-1,2.2115272E-1,1.5886625E0,-8.271905E-1,5.244735E-1,-3.002505E-1,3.2305914E-1,-9.1627556E-1,2.9056436E-1,-1.2070662E0,9.953174E-1,-1.270464E0,-2.313152E-2,-5.028498E-1,-3.5586867E-1,2.7810588E-1,1.0850434E-2,7.215177E-1,-6.2307304E-1,-3.960575E-1,-8.790942E-3,8.261405E-1,7.440833E-1,-9.652034E-1,2.1494217E-1,-6.760089E-1,-3.7907264E-1,1.3689228E0,-5.3200588E-2,-2.0289432E-1,4.4402778E-1,-1.8371916E-1,-5.042496E-2,1.0686911E-1,-5.108547E-1,1.5962012E-1,-3.5441822E-1,-4.1435894E-1,3.412281E-1,9.6899085E-2,8.4014857E-1,-4.1890302E-1,2.3296891E-1,4.6201763E-1,-6.325748E-2,5.1026706E-2,-2.2860345E-1,-1.6255965E-2,1.8988739E-1,-5.745478E-2,-3.6641645E-1,-1.0359775E0,2.4939023E-1,1.7090425E-1,4.6027216E-1,-4.8701365E-2,-6.373492E-1,1.1675295E-2,-3.615784E-2,2.0091249E-2,-1.8023215E-1,1.6560946E-1,-1.0869521E-2,-9.948822E-2,2.7178248E-2,-1.2851122E-1,-5.77438E-1,-2.020189E-1,1.6148958E-1,2.2185148E-1,-9.056392E-3,2.8334972E-2,6.825469E-1,2.2466499E-1,-3.1729177E-2,-2.055742E-1,-4.373902E-2,1.972217E-1,5.187572E-1,3.840565E-1,-6.240911E-2],"categories":[],"categories_nodes":[],"categories_segments":[],"categories_sizes":[],"default_left":[0,0,0,0,0,0,0,0,0,0,0,0,0,0,0,0,0,0,0,0,0,0,0,0,0,0,0,0,0,0,0,0,0,0,0,0,0,0,0,0,0,0,0,0,0,0,0,0,0,0,0,0,0,0,0,0,0,0,0,0,0,0,0,0,0,0,0,0,0,0,0,0,0,0,0,0,0,0,0,0,0,0,0,0,0,0,0,0,0,0,0,0,0,0,0,0,0,0,0,0,0,0,0,0,0,0,0,0,0,0,0,0,0,0,0],"id":17,"left_children":[1,3,5,7,9,11,13,15,17,19,21,23,25,27,29,31,33,35,37,39,41,43,45,47,49,51,53,55,57,59,61,63,65,67,69,71,73,75,77,79,81,83,-1,85,87,89,91,-1,93,95,97,-1,99,101,103,-1,105,-1,107,-1,109,111,113,-1,-1,-1,-1,-1,-1,-1,-1,-1,-1,-1,-1,-1,-1,-1,-1,-1,-1,-1,-1,-1,-1,-1,-1,-1,-1,-1,-1,-1,-1,-1,-1,-1,-1,-1,-1,-1,-1,-1,-1,-1,-1,-1,-1,-1,-1,-1,-1,-1,-1,-1,-1],"loss_changes":[1.5276628E0,5.425519E0,4.214614E0,6.809584E0,5.9660854E0,6.64502E0,1.9457243E1,7.836118E0,7.785555E0,8.842611E0,7.3055253E0,1.1155598E1,8.590084E0,3.3164597E1,1.3619757E1,7.663499E0,9.471891E0,1.2854183E1,1.0008737E1,7.9192924E0,5.926318E0,2.88988E1,1.3892542E1,1.5500278E0,1.1064949E1,3.4052696E1,7.031345E0,2.1070667E1,2.0774853E1,9.365958E0,3.291414E1,1.21548E1,2.2078705E-1,1.2619968E1,6.8911676E0,2.7998453E1,1.750075E1,9.2993765E0,1.0779823E1,1.5115335E1,3.4246294E0,4.85215E0,0E0,3.9499203E1,4.6312237E0,8.172502E0,6.942346E0,0E0,3.50901E-1,1.7413237E1,1.8218807E1,0E0,1.3368559E1,1.3319149E1,1.2094852E1,0E0,2.6640285E1,0E0,9.353956E-1,0E0,2.2570581E0,3.7336235E0,2.3801424E1,0E0,0E0,0E0,0E0,0E0,0E0,0E0,0E0,0E0,0E0,0E0,0E0,0E0,0E0,0E0,0E0,0E0,0E0,0E0,0E0,0E0,0E0,0E0,0E0,0E0,0E0,0E0,0E0,0E0,0E0,0E0,0E0,0E0,0E0,0E0,0E0,0E0,0E0,